SVM-light Version V6.20
0 # kernel type
3 # kernel parameter -d 
1 # kernel parameter -g 
1 # kernel parameter -s 
1 # kernel parameter -r 
empty# kernel parameter -u 
3974 # highest feature index 
1762 # number of training documents 
1020 # number of support vectors plus 1 
0.59060641 # threshold b, each following line is a SV (starting with alpha*y)
-1 120:0.18257418 123:0.18257418 152:0.18257418 518:0.18257418 531:0.18257418 773:0.18257418 1075:0.18257418 1076:0.18257418 1759:0.18257418 1795:0.18257418 1805:0.18257418 1953:0.18257418 2105:0.18257418 2518:0.18257418 2520:0.18257418 2763:0.18257418 2830:0.18257418 2857:0.18257418 2984:0.18257418 3016:0.18257418 3051:0.18257418 3190:0.18257418 3213:0.18257418 3289:0.18257418 3364:0.18257418 3370:0.18257418 3430:0.18257418 3541:0.18257418 3597:0.18257418 3852:0.18257418 #
-1 11:0.30151135 15:0.30151135 518:0.30151135 548:0.30151135 1085:0.30151135 1087:0.30151135 2057:0.30151135 2497:0.30151135 3541:0.30151135 3545:0.30151135 3837:0.30151135 #
0.3220009706787267944605446245987 232:0.26726124 244:0.26726124 320:0.26726124 362:0.26726124 476:0.26726124 1475:0.26726124 2321:0.26726124 2981:0.26726124 3103:0.26726124 3106:0.26726124 3541:0.26726124 3663:0.26726124 3904:0.26726124 3914:0.26726124 #
1 7:0.35355338 11:0.17677669 19:0.17677669 113:0.17677669 476:0.17677669 727:0.17677669 731:0.17677669 892:0.17677669 896:0.17677669 988:0.17677669 989:0.17677669 1178:0.17677669 1208:0.17677669 1670:0.17677669 2057:0.17677669 2094:0.17677669 2222:0.17677669 2508:0.17677669 2611:0.17677669 2614:0.17677669 2816:0.17677669 3029:0.17677669 3030:0.17677669 3051:0.17677669 3364:0.17677669 3372:0.17677669 3541:0.17677669 3612:0.17677669 3735:0.17677669 #
-0.53750558332965669983138923271326 297:0.17677669 302:0.17677669 320:0.17677669 325:0.17677669 436:0.17677669 770:0.17677669 771:0.17677669 1030:0.17677669 1517:0.17677669 1518:0.17677669 1670:0.17677669 1677:0.17677669 1759:0.17677669 1997:0.17677669 2208:0.17677669 2309:0.17677669 2845:0.17677669 2850:0.17677669 3364:0.35355338 3366:0.17677669 3414:0.17677669 3898:0.17677669 3904:0.17677669 3929:0.17677669 3939:0.35355338 3942:0.17677669 #
1 7:0.20851441 15:0.20851441 368:0.20851441 518:0.20851441 601:0.20851441 1240:0.20851441 1281:0.20851441 1285:0.20851441 1921:0.20851441 2087:0.20851441 2623:0.20851441 2799:0.20851441 2800:0.20851441 3020:0.20851441 3213:0.20851441 3265:0.20851441 3364:0.20851441 3399:0.20851441 3541:0.20851441 3606:0.20851441 3780:0.20851441 3781:0.20851441 3955:0.20851441 #
1 518:0.26726124 1075:0.26726124 1076:0.26726124 1909:0.26726124 2237:0.26726124 2896:0.26726124 3073:0.26726124 3364:0.53452247 3370:0.26726124 3394:0.26726124 3541:0.26726124 #
1 518:0.44721359 3070:0.44721359 3074:0.44721359 3541:0.44721359 3636:0.44721359 #
1 15:0.18898223 518:0.18898223 590:0.18898223 686:0.18898223 689:0.18898223 1256:0.18898223 1990:0.18898223 2186:0.18898223 2405:0.18898223 2596:0.18898223 2647:0.18898223 2880:0.18898223 3148:0.18898223 3273:0.18898223 3308:0.18898223 3314:0.18898223 3451:0.18898223 3517:0.56694669 3861:0.18898223 3966:0.18898223 #
1 152:0.17677669 178:0.17677669 476:0.17677669 633:0.17677669 1281:0.17677669 1296:0.17677669 1322:0.17677669 1325:0.17677669 1329:0.17677669 1331:0.17677669 1430:0.17677669 1431:0.17677669 1504:0.17677669 1795:0.17677669 2206:0.17677669 2410:0.17677669 2426:0.17677669 2500:0.17677669 2501:0.17677669 2561:0.17677669 2576:0.17677669 3048:0.17677669 3070:0.17677669 3213:0.35355338 3233:0.17677669 3507:0.17677669 3802:0.17677669 3804:0.17677669 3939:0.17677669 #
-1 15:0.18898223 152:0.18898223 303:0.18898223 320:0.18898223 476:0.18898223 1529:0.18898223 1759:0.18898223 1773:0.18898223 1795:0.18898223 2410:0.18898223 2436:0.18898223 2643:0.18898223 3213:0.37796447 3223:0.18898223 3308:0.18898223 3364:0.37796447 3388:0.18898223 3427:0.18898223 3541:0.18898223 3594:0.18898223 3667:0.18898223 3855:0.18898223 #
-1 87:0.2 152:0.2 524:0.2 739:0.2 1281:0.40000001 1295:0.2 1595:0.2 3051:0.2 3052:0.2 3073:0.2 3113:0.2 3187:0.2 3189:0.2 3364:0.2 3541:0.40000001 3639:0.2 3647:0.2 3904:0.2 3939:0.2 #
-1 518:0.18569534 670:0.18569534 682:0.18569534 1041:0.18569534 1042:0.18569534 1236:0.18569534 1281:0.18569534 1296:0.18569534 1609:0.18569534 1615:0.18569534 1815:0.18569534 1990:0.18569534 2459:0.18569534 2965:0.18569534 3032:0.18569534 3051:0.18569534 3070:0.18569534 3074:0.18569534 3213:0.18569534 3364:0.37139067 3421:0.18569534 3468:0.18569534 3472:0.18569534 3541:0.18569534 3847:0.18569534 3904:0.18569534 #
-1 137:0.17960531 476:0.17960531 507:0.17960531 974:0.17960531 975:0.17960531 1218:0.17960531 1281:0.17960531 1296:0.17960531 1398:0.17960531 1400:0.17960531 1497:0.17960531 1963:0.17960531 2068:0.17960531 2309:0.17960531 2870:0.17960531 2984:0.17960531 3013:0.17960531 3213:0.35921061 3253:0.17960531 3364:0.35921061 3426:0.17960531 3541:0.17960531 3579:0.17960531 3802:0.17960531 3851:0.17960531 #
-1 476:0.2773501 624:0.2773501 686:0.2773501 1064:0.2773501 1525:0.2773501 2116:0.2773501 2237:0.2773501 2319:0.2773501 3213:0.2773501 3364:0.2773501 3369:0.2773501 3527:0.2773501 3528:0.2773501 #
1 7:0.31622776 11:0.31622776 135:0.31622776 518:0.31622776 1267:0.31622776 1478:0.31622776 1479:0.31622776 1618:0.31622776 2606:0.31622776 2992:0.31622776 #
1 518:0.5 1371:0.5 2057:0.5 3190:0.5 #
1 518:0.40824831 670:0.40824831 1578:0.40824831 1618:0.40824831 2028:0.40824831 2453:0.40824831 #
1 19:0.57735026 518:0.57735026 1759:0.57735026 #
1 252:0.57735026 518:0.57735026 1521:0.57735026 #
-0.33786831211200463176425046185614 476:0.70710677 3448:0.70710677 #
-1 152:0.16439898 179:0.16439898 466:0.16439898 476:0.16439898 1352:0.16439898 1962:0.16439898 2459:0.16439898 2603:0.16439898 2643:0.16439898 2686:0.16439898 3119:0.16439898 3203:0.16439898 3206:0.16439898 3213:0.65759593 3223:0.16439898 3239:0.16439898 3541:0.16439898 3641:0.16439898 3686:0.16439898 3783:0.16439898 3798:0.16439898 3904:0.16439898 #
-0.73969543498994039243399356564623 36:0.16666667 40:0.16666667 81:0.16666667 82:0.16666667 113:0.16666667 114:0.16666667 120:0.16666667 121:0.16666667 524:0.16666667 566:0.16666667 686:0.16666667 687:0.16666667 823:0.16666667 824:0.16666667 1618:0.16666667 1627:0.16666667 1652:0.16666667 1653:0.16666667 1687:0.16666667 1708:0.16666667 1719:0.16666667 1737:0.16666667 2410:0.16666667 2413:0.16666667 2476:0.16666667 2477:0.16666667 2760:0.16666667 2761:0.16666667 2811:0.16666667 2812:0.16666667 2858:0.16666667 2861:0.16666667 3082:0.16666667 3083:0.16666667 3213:0.16666667 3270:0.16666667 #
1 105:0.37796447 476:0.37796447 1491:0.37796447 3213:0.37796447 3364:0.37796447 3426:0.37796447 3541:0.37796447 #
1 476:0.33333334 2784:0.33333334 3213:0.33333334 3364:0.33333334 3426:0.33333334 3468:0.33333334 3541:0.33333334 3557:0.33333334 3970:0.33333334 #
1 476:0.25819889 515:0.25819889 1618:0.25819889 1650:0.25819889 3213:0.25819889 3364:0.25819889 3369:0.25819889 3541:0.51639777 3647:0.25819889 3690:0.25819889 3692:0.25819889 3863:0.25819889 #
1 11:0.21320072 152:0.21320072 476:0.21320072 627:0.21320072 921:0.21320072 1017:0.21320072 2057:0.21320072 2061:0.21320072 2237:0.21320072 2260:0.21320072 2971:0.21320072 3068:0.21320072 3364:0.42640144 3369:0.21320072 3380:0.21320072 3527:0.21320072 3528:0.21320072 3541:0.21320072 3550:0.21320072 #
1 208:0.22941573 303:0.22941573 476:0.22941573 686:0.22941573 1333:0.22941573 1509:0.22941573 1679:0.22941573 1680:0.22941573 2459:0.22941573 2843:0.22941573 3213:0.22941573 3245:0.22941573 3305:0.22941573 3364:0.22941573 3369:0.22941573 3450:0.22941573 3455:0.22941573 3541:0.22941573 3705:0.22941573 #
-1 476:0.5 2266:0.5 3541:0.5 3557:0.5 #
-1 334:0.44721359 335:0.44721359 476:0.44721359 1759:0.44721359 3541:0.44721359 #
-0.92412005948975317615179392305436 476:0.30151135 1478:0.30151135 1831:0.30151135 1881:0.30151135 2559:0.30151135 3541:0.60302269 3600:0.30151135 3647:0.30151135 #
-1 476:0.20412415 513:0.20412415 1025:0.20412415 1471:0.20412415 1573:0.40824831 1578:0.20412415 1759:0.20412415 3541:0.61237246 3581:0.20412415 3647:0.40824831 #
1 4:0.31622776 258:0.31622776 320:0.31622776 327:0.31622776 518:0.31622776 1525:0.63245553 2939:0.31622776 #
1 518:0.40824831 574:0.40824831 1618:0.40824831 2116:0.40824831 3300:0.40824831 3873:0.40824831 #
1 15:0.24253562 87:0.24253562 88:0.24253562 152:0.24253562 518:0.24253562 1525:0.24253562 1552:0.24253562 1581:0.24253562 1670:0.24253562 1671:0.24253562 2984:0.24253562 3326:0.24253562 3755:0.24253562 3764:0.24253562 3770:0.24253562 3771:0.24253562 3778:0.24253562 #
0.079581396393310924186614840891707 137:0.2773501 518:0.2773501 574:0.2773501 1041:0.2773501 1043:0.2773501 1064:0.2773501 1687:0.2773501 2116:0.2773501 2180:0.2773501 2930:0.2773501 3783:0.2773501 3785:0.2773501 3814:0.2773501 #
1 87:0.43643579 136:0.21821789 141:0.43643579 152:0.21821789 518:0.21821789 670:0.21821789 777:0.21821789 817:0.21821789 818:0.21821789 892:0.21821789 897:0.21821789 2410:0.21821789 2770:0.21821789 2907:0.21821789 3432:0.21821789 #
-1 131:0.19611613 232:0.19611613 236:0.19611613 436:0.39223227 461:0.39223227 1568:0.19611613 1618:0.19611613 1719:0.19611613 2410:0.19611613 2434:0.19611613 2508:0.19611613 2512:0.19611613 2561:0.19611613 2857:0.19611613 3093:0.19611613 3094:0.19611613 3190:0.39223227 #
-1 436:0.5 445:0.5 670:0.5 1618:0.5 #
-0.46467814728246381594800595848938 11:0.31622776 87:0.31622776 88:0.31622776 518:0.31622776 528:0.31622776 1670:0.31622776 1676:0.31622776 2792:0.31622776 2794:0.31622776 3517:0.31622776 #
-1 518:0.25 1967:0.25 1969:0.25 2028:0.5 2116:0.25 2237:0.25 2410:0.25 2441:0.25 2745:0.25 3883:0.5 #
-1 436:0.20851441 459:0.20851441 686:0.20851441 693:0.20851441 817:0.20851441 818:0.20851441 1017:0.20851441 1525:0.20851441 1541:0.20851441 1759:0.20851441 2367:0.20851441 2368:0.20851441 2410:0.20851441 2443:0.20851441 2464:0.20851441 2466:0.20851441 2508:0.20851441 2512:0.20851441 2907:0.20851441 3213:0.20851441 3364:0.20851441 3476:0.20851441 3939:0.20851441 #
1 476:0.57735026 3541:0.57735026 3557:0.57735026 #
1 518:0.25819889 3541:0.77459669 3559:0.25819889 3647:0.51639777 #
1 476:0.53452247 1556:0.26726124 2301:0.26726124 2306:0.26726124 2928:0.26726124 3541:0.53452247 3617:0.26726124 3647:0.26726124 #
-1 476:0.31622776 704:0.31622776 1525:0.31622776 2390:0.31622776 3541:0.63245553 3557:0.31622776 3647:0.31622776 #
-1 476:0.70710677 3541:0.70710677 #
-1 308:0.11547005 476:0.11547005 1335:0.11547005 1451:0.11547005 1452:0.11547005 1841:0.11547005 1910:0.11547005 1948:0.11547005 2581:0.11547005 3068:0.11547005 3213:0.11547005 3243:0.11547005 3477:0.11547005 3517:0.11547005 3541:0.69282031 3647:0.57735026 #
-1 15:0.25 476:0.25 2951:0.25 3541:0.75 3647:0.5 #
1 7:0.26726124 476:0.26726124 620:0.26726124 825:0.26726124 1281:0.26726124 1300:0.26726124 1618:0.26726124 1620:0.26726124 1967:0.26726124 2646:0.26726124 3847:0.26726124 3904:0.26726124 3909:0.26726124 3939:0.26726124 #
1 15:0.23570226 518:0.23570226 768:0.23570226 769:0.23570226 988:0.23570226 1281:0.23570226 1285:0.23570226 1352:0.23570226 1901:0.23570226 1904:0.23570226 2019:0.23570226 2410:0.23570226 2433:0.23570226 2508:0.23570226 2512:0.23570226 2850:0.23570226 2855:0.23570226 2917:0.23570226 #
1 11:0.25819889 15:0.25819889 265:0.25819889 276:0.25819889 346:0.25819889 436:0.25819889 444:0.25819889 1281:0.25819889 1283:0.25819889 1341:0.25819889 1433:0.25819889 1618:0.25819889 1621:0.25819889 2850:0.25819889 2855:0.25819889 #
1 328:0.18898223 329:0.18898223 518:0.37796447 534:0.18898223 587:0.18898223 670:0.18898223 1330:0.18898223 1525:0.18898223 1541:0.18898223 1719:0.37796447 1759:0.37796447 1788:0.18898223 2410:0.18898223 2412:0.18898223 2464:0.18898223 2561:0.18898223 3025:0.18898223 3213:0.18898223 3259:0.18898223 #
1 36:0.31622776 518:0.31622776 612:0.31622776 1026:0.31622776 1281:0.31622776 1759:0.31622776 2116:0.31622776 3701:0.31622776 3702:0.31622776 3810:0.31622776 #
-0.29953745303707829394923578547605 199:0.2 200:0.2 256:0.2 287:0.2 518:0.2 565:0.2 1276:0.2 1618:0.2 1719:0.2 1746:0.2 2599:0.2 2611:0.2 3316:0.2 3364:0.60000002 3541:0.2 3623:0.2 3939:0.2 #
-1 11:0.16903085 152:0.33806169 161:0.16903085 178:0.16903085 518:0.16903085 587:0.16903085 829:0.16903085 1352:0.33806169 1356:0.16903085 1357:0.16903085 1985:0.16903085 1987:0.16903085 2284:0.16903085 2288:0.16903085 2417:0.16903085 2420:0.16903085 2561:0.33806169 2570:0.16903085 3017:0.16903085 3023:0.16903085 3070:0.16903085 3074:0.16903085 3213:0.16903085 3225:0.16903085 3364:0.16903085 3387:0.16903085 #
-0.27096885930988567903199282227433 518:0.23570226 565:0.23570226 1489:0.23570226 1618:0.23570226 1858:0.23570226 2561:0.23570226 2576:0.23570226 3051:0.23570226 3070:0.23570226 3074:0.23570226 3364:0.23570226 3409:0.23570226 3751:0.23570226 3771:0.23570226 3783:0.23570226 3798:0.23570226 3802:0.23570226 3904:0.23570226 #
-1 26:0.2 152:0.2 518:0.2 1387:0.2 1550:0.40000001 1556:0.2 1568:0.2 1569:0.2 1858:0.2 1909:0.2 2075:0.2 2076:0.2 2459:0.2 2647:0.2 2928:0.40000001 2929:0.2 3364:0.2 3462:0.2 3728:0.2 #
-1 518:0.31622776 574:0.31622776 791:0.31622776 1210:0.31622776 2116:0.31622776 2345:0.31622776 2691:0.31622776 3680:0.31622776 3720:0.31622776 3723:0.31622776 #
1 476:0.21320072 513:0.21320072 721:0.21320072 723:0.21320072 1471:0.21320072 1573:0.21320072 2028:0.21320072 3541:0.63960212 3647:0.42640144 3755:0.21320072 3758:0.21320072 #
1 2:0.16222142 6:0.16222142 265:0.16222142 273:0.16222142 476:0.16222142 484:0.16222142 1475:0.16222142 1550:0.16222142 1958:0.16222142 2522:0.16222142 2949:0.16222142 3507:0.16222142 3541:0.64888567 3557:0.16222142 3647:0.48666427 #
1 20:0.60302269 476:0.30151135 2581:0.30151135 3541:0.60302269 3647:0.30151135 #
1 15:0.2236068 518:0.2236068 1092:0.2236068 2390:0.2236068 2459:0.2236068 3468:0.2236068 3471:0.2236068 3541:0.67082042 3647:0.44721359 #
1 20:0.32444283 120:0.16222142 128:0.16222142 476:0.16222142 636:0.16222142 1525:0.16222142 2116:0.16222142 3213:0.16222142 3284:0.16222142 3346:0.16222142 3541:0.64888567 3647:0.48666427 #
-1 476:0.10482848 1451:0.10482848 1882:0.10482848 1920:0.10482848 2316:0.10482848 2318:0.10482848 3541:0.7337994 3647:0.62897092 #
-1 79:0.1490712 518:0.1490712 1778:0.1490712 1781:0.1490712 3541:0.74535596 3647:0.59628481 #
-1 36:0.12216944 1544:0.12216944 1670:0.12216944 1677:0.12216944 2116:0.12216944 2139:0.12216944 2284:0.12216944 3049:0.12216944 3050:0.12216944 3188:0.12216944 3213:0.12216944 3288:0.12216944 3456:0.12216944 3541:0.73301667 3647:0.48867777 3844:0.12216944 3904:0.12216944 #
1 320:0.20412415 518:0.20412415 570:0.20412415 892:0.20412415 897:0.20412415 1033:0.20412415 1216:0.20412415 1573:0.20412415 1815:0.20412415 1858:0.20412415 2581:0.20412415 2980:0.20412415 3364:0.61237246 3372:0.20412415 3753:0.20412415 3754:0.20412415 #
1 11:0.40000001 191:0.2 518:0.2 1041:0.2 1365:0.2 1759:0.2 1768:0.2 1795:0.2 1805:0.2 2284:0.2 2561:0.40000001 2570:0.2 3070:0.40000001 3071:0.2 3074:0.2 3783:0.2 #
1 96:0.18898223 152:0.37796447 436:0.18898223 446:0.18898223 686:0.37796447 693:0.18898223 1352:0.18898223 1719:0.18898223 1745:0.18898223 1759:0.18898223 1763:0.18898223 1795:0.18898223 2788:0.18898223 3092:0.18898223 3098:0.18898223 3213:0.37796447 3364:0.18898223 3387:0.18898223 3971:0.18898223 #
1 152:0.26726124 370:0.26726124 518:0.26726124 531:0.26726124 943:0.26726124 995:0.26726124 1509:0.26726124 1511:0.26726124 1519:0.26726124 1956:0.26726124 3213:0.26726124 3364:0.26726124 3904:0.26726124 3928:0.26726124 #
0.55315062386426649965187607449479 134:0.21320072 152:0.42640144 169:0.21320072 173:0.21320072 436:0.21320072 446:0.21320072 686:0.21320072 703:0.21320072 1659:0.21320072 1795:0.21320072 1803:0.21320072 2274:0.21320072 2497:0.21320072 3020:0.21320072 3021:0.21320072 3096:0.21320072 3364:0.21320072 3802:0.21320072 3805:0.21320072 #
-1 7:0.18898223 152:0.18898223 320:0.37796447 371:0.18898223 476:0.18898223 659:0.18898223 1017:0.18898223 1749:0.18898223 2578:0.18898223 2581:0.18898223 2896:0.18898223 3213:0.18898223 3239:0.18898223 3364:0.37796447 3366:0.18898223 3369:0.18898223 3448:0.18898223 3449:0.18898223 3904:0.18898223 3932:0.18898223 3939:0.18898223 3955:0.18898223 #
-1 120:0.15811388 152:0.15811388 476:0.15811388 1026:0.15811388 1038:0.15811388 1039:0.15811388 1759:0.31622776 1760:0.15811388 1792:0.15811388 1795:0.31622776 1805:0.15811388 1812:0.15811388 1814:0.15811388 1815:0.15811388 2286:0.15811388 2287:0.15811388 2488:0.15811388 2647:0.15811388 2648:0.15811388 3070:0.15811388 3080:0.15811388 3190:0.15811388 3200:0.15811388 3364:0.15811388 3421:0.15811388 3771:0.15811388 3783:0.15811388 3791:0.15811388 3802:0.15811388 3814:0.15811388 3818:0.15811388 3863:0.15811388 3945:0.15811388 3948:0.15811388 #
-0.21613998175400142565116823334392 15:0.35355338 518:0.35355338 835:0.35355338 1663:0.35355338 2098:0.35355338 2531:0.35355338 3141:0.35355338 3541:0.35355338 #
-1 4:0.44721359 5:0.2236068 120:0.2236068 137:0.2236068 265:0.2236068 436:0.2236068 1045:0.2236068 1046:0.2236068 1352:0.2236068 1353:0.2236068 1504:0.2236068 1795:0.2236068 2359:0.2236068 2561:0.2236068 2562:0.2236068 3783:0.2236068 3790:0.2236068 #
-1 36:0.23570226 39:0.23570226 476:0.23570226 1511:0.23570226 1618:0.23570226 1742:0.23570226 1795:0.23570226 2561:0.23570226 2574:0.23570226 3188:0.23570226 3213:0.23570226 3238:0.23570226 3245:0.23570226 3364:0.47140452 3369:0.23570226 #
1 36:0.22941573 37:0.22941573 518:0.22941573 1759:0.22941573 2928:0.22941573 3541:0.6882472 3631:0.22941573 3647:0.45883146 #
1 476:0.2773501 659:0.2773501 1858:0.2773501 2763:0.2773501 3541:0.5547002 3628:0.2773501 3647:0.2773501 3728:0.2773501 3729:0.2773501 3904:0.2773501 #
1 524:0.70710677 3541:0.70710677 #
1 15:0.18257418 476:0.18257418 1030:0.18257418 1583:0.36514837 1588:0.18257418 1589:0.18257418 2417:0.18257418 2459:0.18257418 2603:0.18257418 2928:0.18257418 2981:0.18257418 3316:0.18257418 3541:0.54772258 3647:0.36514837 3802:0.18257418 3904:0.18257418 #
-1 468:0.25819889 1455:0.25819889 1456:0.25819889 2181:0.25819889 2269:0.25819889 3541:0.77459669 3647:0.25819889 #
-1 368:0.16903085 369:0.16903085 476:0.16903085 988:0.16903085 1595:0.16903085 1858:0.16903085 3185:0.16903085 3186:0.16903085 3441:0.16903085 3541:0.67612338 3603:0.16903085 3647:0.50709254 #
-1 20:0.28867513 230:0.28867513 468:0.28867513 1158:0.28867513 1159:0.28867513 2997:0.28867513 3540:0.28867513 3541:0.57735026 3647:0.28867513 #
1 334:0.28867513 335:0.28867513 476:0.28867513 1432:0.28867513 1435:0.28867513 1552:0.28867513 1554:0.28867513 1618:0.28867513 1623:0.28867513 2611:0.28867513 2792:0.28867513 2815:0.28867513 #
1 476:0.57735026 3213:0.57735026 3223:0.57735026 #
1 120:0.23570226 518:0.23570226 721:0.23570226 1191:0.23570226 1264:0.23570226 1544:0.23570226 1618:0.23570226 1719:0.23570226 2605:0.23570226 2972:0.23570226 3324:0.23570226 3364:0.47140452 3385:0.23570226 3849:0.23570226 3850:0.23570226 #
0.27569441015571322095567552423745 152:0.25 476:0.25 624:0.25 800:0.25 1352:0.25 1368:0.25 2116:0.25 3364:0.5 3369:0.25 3450:0.25 3455:0.25 3828:0.25 3866:0.25 #
1 476:0.5 938:0.5 1618:0.5 1749:0.5 #
-1 476:1 #
1 7:0.15430336 15:0.15430336 152:0.15430336 436:0.15430336 454:0.15430336 766:0.15430336 1322:0.15430336 2116:0.15430336 2128:0.15430336 2200:0.15430336 2417:0.15430336 2928:0.15430336 3056:0.15430336 3541:0.61721343 3647:0.46291006 3652:0.15430336 3755:0.15430336 3830:0.15430336 3835:0.15430336 #
1 152:0.15249857 174:0.15249857 376:0.15249857 436:0.15249857 454:0.15249857 1316:0.15249857 1550:0.15249857 1551:0.15249857 1595:0.15249857 2200:0.15249857 2321:0.15249857 2928:0.15249857 3364:0.15249857 3391:0.15249857 3541:0.60999429 3647:0.45749572 3663:0.15249857 3755:0.15249857 3904:0.15249857 3917:0.15249857 #
1 320:0.20851441 326:0.20851441 476:0.20851441 1759:0.20851441 1789:0.20851441 1848:0.20851441 2351:0.20851441 3269:0.20851441 3364:0.20851441 3366:0.20851441 3541:0.62554324 3647:0.41702881 #
1 436:0.2773501 1359:0.2773501 1360:0.2773501 1525:0.2773501 1775:0.2773501 1777:0.2773501 2341:0.2773501 3541:0.5547002 3647:0.2773501 3669:0.2773501 #
1 4:0.23570226 7:0.23570226 232:0.23570226 237:0.23570226 476:0.23570226 485:0.23570226 1175:0.23570226 1176:0.23570226 1599:0.23570226 1670:0.23570226 1677:0.23570226 2192:0.23570226 3203:0.23570226 3364:0.23570226 3541:0.23570226 3542:0.23570226 3904:0.23570226 3914:0.23570226 #
1 476:0.26726124 624:0.26726124 1398:0.26726124 1400:0.26726124 2068:0.26726124 2116:0.26726124 2453:0.26726124 3364:0.26726124 3403:0.26726124 3436:0.26726124 3541:0.26726124 3579:0.26726124 3904:0.26726124 3964:0.26726124 #
-0.75156041318066546530474170140224 518:0.40824831 615:0.40824831 1462:0.40824831 1463:0.40824831 2116:0.40824831 3874:0.40824831 #
-1 152:0.22941573 320:0.22941573 345:0.22941573 476:0.22941573 633:0.22941573 925:0.22941573 1281:0.22941573 1719:0.22941573 1745:0.22941573 1990:0.22941573 2500:0.22941573 2763:0.22941573 2941:0.22941573 3213:0.22941573 3324:0.22941573 3450:0.22941573 3697:0.22941573 3802:0.22941573 3804:0.22941573 #
-0.17510915253548917092096814940305 15:0.2773501 322:0.2773501 323:0.2773501 476:0.2773501 1535:0.2773501 1618:0.2773501 1622:0.2773501 3213:0.2773501 3216:0.2773501 3541:0.2773501 3898:0.2773501 3904:0.2773501 3930:0.2773501 #
1 476:0.25 504:0.25 913:0.25 1085:0.25 1087:0.25 1314:0.25 1315:0.25 2497:0.25 2503:0.25 2758:0.25 2759:0.25 3448:0.25 3541:0.25 3627:0.25 3837:0.25 3838:0.25 #
0.86749446497696192093229683450772 468:0.35355338 744:0.35355338 1026:0.35355338 1281:0.35355338 1558:0.35355338 1815:0.35355338 3541:0.35355338 3598:0.35355338 #
1 11:0.2773501 476:0.2773501 900:0.5547002 3541:0.5547002 3647:0.2773501 3841:0.2773501 3874:0.2773501 #
1 320:0.2236068 436:0.2236068 1175:0.2236068 1316:0.2236068 1320:0.2236068 2284:0.2236068 2367:0.2236068 2368:0.2236068 2459:0.2236068 2507:0.44721359 2521:0.2236068 2803:0.2236068 3051:0.2236068 3502:0.2236068 3541:0.2236068 3616:0.2236068 3821:0.2236068 #
1 152:0.24253562 303:0.24253562 436:0.24253562 452:0.24253562 1240:0.24253562 1352:0.24253562 1353:0.24253562 2055:0.24253562 2087:0.24253562 2561:0.24253562 2763:0.24253562 3541:0.48507124 3647:0.24253562 3880:0.24253562 #
-1 476:0.33333334 651:0.33333334 802:0.33333334 994:0.33333334 3541:0.66666669 3565:0.33333334 #
-1 258:0.25819889 1030:0.25819889 1687:0.25819889 1901:0.25819889 2028:0.25819889 2237:0.25819889 2390:0.25819889 3541:0.51639777 3647:0.25819889 3660:0.25819889 3885:0.25819889 3886:0.25819889 #
-1 303:0.25819889 422:0.25819889 476:0.25819889 639:0.25819889 1316:0.25819889 1957:0.25819889 2237:0.25819889 2241:0.25819889 2981:0.25819889 3190:0.25819889 3541:0.51639777 3647:0.25819889 #
-1 476:0.23570226 624:0.23570226 1471:0.23570226 1482:0.23570226 2116:0.23570226 2177:0.23570226 2351:0.23570226 2984:0.23570226 3364:0.23570226 3369:0.23570226 3541:0.47140452 3581:0.23570226 3686:0.23570226 3735:0.23570226 3885:0.23570226 #
-1 476:0.30151135 983:0.30151135 985:0.30151135 1879:0.30151135 2914:0.30151135 2915:0.30151135 3541:0.60302269 3884:0.30151135 #
1 518:0.23570226 686:0.47140452 766:0.23570226 1618:0.23570226 1719:0.23570226 1735:0.23570226 1739:0.23570226 2410:0.23570226 2412:0.23570226 2644:0.23570226 2850:0.23570226 2856:0.23570226 2928:0.23570226 3735:0.23570226 3891:0.23570226 #
1 152:0.18569534 518:0.18569534 686:0.18569534 693:0.18569534 716:0.18569534 717:0.18569534 1795:0.18569534 1911:0.18569534 1913:0.18569534 2258:0.18569534 2410:0.18569534 2508:0.18569534 3078:0.37139067 3190:0.37139067 3213:0.37139067 3224:0.18569534 3284:0.18569534 3346:0.18569534 3744:0.18569534 3783:0.18569534 #
1 415:0.23570226 416:0.23570226 524:0.23570226 576:0.23570226 1175:0.23570226 1342:0.23570226 1345:0.23570226 1381:0.23570226 1382:0.23570226 1618:0.23570226 1630:0.23570226 1719:0.23570226 1851:0.23570226 1976:0.23570226 1977:0.23570226 2234:0.23570226 2235:0.23570226 3708:0.23570226 #
1 85:0.15617377 320:0.15617377 322:0.15617377 367:0.15617377 376:0.15617377 381:0.15617377 476:0.15617377 517:0.15617377 686:0.15617377 925:0.15617377 1221:0.15617377 1410:0.15617377 1719:0.15617377 1745:0.15617377 2312:0.15617377 2314:0.15617377 2863:0.15617377 3051:0.15617377 3190:0.15617377 3194:0.15617377 3213:0.62469506 3229:0.15617377 3279:0.15617377 3346:0.15617377 3507:0.15617377 3821:0.15617377 #
1 320:0.28867513 476:0.28867513 1281:0.28867513 1296:0.28867513 1316:0.28867513 1985:0.28867513 2410:0.28867513 2443:0.28867513 3213:0.28867513 3935:0.28867513 3939:0.28867513 3952:0.28867513 #
-1 7:0.5 436:0.5 446:0.5 686:0.5 #
-1 15:0.17960531 120:0.17960531 152:0.17960531 328:0.17960531 436:0.17960531 449:0.17960531 518:0.17960531 1089:0.17960531 1281:0.17960531 1322:0.17960531 1352:0.35921061 1353:0.17960531 1719:0.17960531 1735:0.17960531 1775:0.17960531 1815:0.17960531 2763:0.17960531 2842:0.17960531 2850:0.17960531 2949:0.17960531 3017:0.17960531 3213:0.17960531 3288:0.17960531 3364:0.17960531 3517:0.17960531 3755:0.17960531 3756:0.17960531 3844:0.17960531 #
-1 518:0.5 744:0.25 749:0.25 1815:0.5 1858:0.25 3068:0.25 3190:0.25 3201:0.25 3213:0.25 3939:0.25 #
-1 152:0.17677669 211:0.35355338 213:0.17677669 320:0.17677669 346:0.17677669 347:0.17677669 371:0.17677669 382:0.17677669 436:0.17677669 1352:0.17677669 1511:0.17677669 1519:0.17677669 1544:0.17677669 1795:0.17677669 1810:0.17677669 1858:0.17677669 1866:0.17677669 2611:0.17677669 2706:0.17677669 2777:0.17677669 2945:0.17677669 3364:0.17677669 3507:0.17677669 3821:0.17677669 3823:0.17677669 3830:0.17677669 3834:0.17677669 3904:0.17677669 3939:0.17677669 #
1 7:0.25 476:0.25 624:0.25 1017:0.25 1018:0.25 1990:0.25 2002:0.25 2116:0.25 2145:0.25 3541:0.5 3647:0.25 3842:0.25 3904:0.25 #
1 476:0.57735026 3541:0.57735026 3557:0.57735026 #
-0.66933433395843633384458826185437 476:0.28867513 504:0.28867513 1085:0.28867513 1087:0.28867513 1314:0.28867513 1315:0.28867513 2497:0.28867513 2503:0.28867513 2758:0.28867513 2759:0.28867513 3837:0.28867513 3838:0.28867513 #
-0.87089215156849275611961047616205 476:0.30151135 1064:0.30151135 1281:0.30151135 1300:0.30151135 1395:0.30151135 1542:0.30151135 2758:0.30151135 3031:0.30151135 3213:0.30151135 3223:0.30151135 3904:0.30151135 #
-1 11:0.34299716 19:0.17149858 476:0.17149858 670:0.17149858 1017:0.17149858 1265:0.17149858 1396:0.17149858 1552:0.17149858 1759:0.17149858 1774:0.17149858 1858:0.34299716 1959:0.17149858 3213:0.17149858 3223:0.17149858 3468:0.17149858 3524:0.17149858 3541:0.17149858 3663:0.17149858 3730:0.17149858 3771:0.17149858 3775:0.17149858 3904:0.34299716 3933:0.17149858 3939:0.17149858 3967:0.17149858 #
-1 6:0.31622776 476:0.31622776 659:0.31622776 913:0.31622776 1511:0.31622776 1515:0.31622776 2321:0.31622776 3541:0.31622776 3799:0.31622776 3904:0.31622776 #
-1 476:0.44721359 630:0.44721359 2459:0.44721359 3213:0.44721359 3223:0.44721359 #
0.49316880928449985388439813505101 22:0.2773501 436:0.2773501 460:0.2773501 1618:0.2773501 1749:0.2773501 2237:0.2773501 2561:0.2773501 2751:0.2773501 2791:0.2773501 2984:0.2773501 3735:0.2773501 3746:0.2773501 3814:0.2773501 #
-0.33782873009358804772261919424636 226:0.37796447 227:0.37796447 518:0.37796447 740:0.37796447 1844:0.37796447 1845:0.37796447 3541:0.37796447 #
1 436:0.57735026 1858:0.57735026 2444:0.57735026 #
1 292:0.44721359 436:0.44721359 1359:0.44721359 1360:0.44721359 2237:0.44721359 #
0.4757515571885911342953079383733 211:0.21821789 368:0.21821789 436:0.21821789 446:0.21821789 686:0.21821789 1111:0.21821789 1314:0.21821789 1668:0.21821789 1812:0.21821789 1814:0.21821789 2237:0.21821789 2248:0.21821789 3190:0.21821789 3239:0.21821789 3251:0.21821789 3310:0.21821789 3311:0.21821789 3783:0.21821789 3789:0.21821789 3802:0.21821789 3812:0.21821789 #
-1 36:0.20851441 436:0.20851441 1359:0.20851441 1360:0.20851441 1371:0.20851441 1373:0.20851441 1375:0.20851441 1670:0.20851441 1677:0.20851441 1815:0.20851441 1816:0.20851441 2125:0.20851441 2129:0.20851441 2214:0.20851441 2222:0.20851441 2928:0.20851441 2984:0.20851441 3026:0.20851441 3190:0.20851441 3196:0.20851441 3364:0.20851441 3749:0.20851441 3904:0.20851441 #
-1 436:0.2773501 446:0.2773501 686:0.2773501 1410:0.2773501 1411:0.2773501 1904:0.2773501 2020:0.2773501 2057:0.2773501 2215:0.2773501 2327:0.2773501 3280:0.2773501 3281:0.2773501 3316:0.2773501 #
-1 193:0.20412415 337:0.20412415 436:0.20412415 446:0.20412415 686:0.20412415 741:0.20412415 805:0.20412415 807:0.20412415 1410:0.20412415 1411:0.20412415 1500:0.20412415 1501:0.20412415 1525:0.20412415 1558:0.20412415 1560:0.20412415 1719:0.40824831 3402:0.20412415 3541:0.20412415 3586:0.20412415 3686:0.20412415 3859:0.20412415 #
-0.55477189708453722438719069032231 252:0.23570226 254:0.23570226 415:0.23570226 416:0.23570226 422:0.23570226 524:0.23570226 576:0.23570226 770:0.23570226 1342:0.23570226 1345:0.23570226 1381:0.23570226 1382:0.23570226 1618:0.23570226 1630:0.23570226 1976:0.23570226 1977:0.23570226 2234:0.23570226 2235:0.23570226 #
1 476:1 #
1 11:0.25819889 476:0.25819889 512:0.25819889 1552:0.25819889 3213:0.25819889 3223:0.25819889 3541:0.51639777 3647:0.25819889 3663:0.25819889 3904:0.25819889 3945:0.25819889 3950:0.25819889 #
1 11:0.37796447 476:0.37796447 486:0.37796447 3213:0.37796447 3223:0.37796447 3541:0.37796447 3642:0.37796447 #
1 476:0.26726124 1558:0.26726124 1562:0.26726124 1609:0.26726124 1795:0.26726124 1815:0.26726124 2850:0.26726124 2852:0.26726124 3213:0.26726124 3278:0.26726124 3541:0.26726124 3660:0.26726124 3885:0.26726124 3887:0.26726124 #
-1 476:1 #
1 15:0.13018891 356:0.13018891 357:0.13018891 518:0.13018891 686:0.13018891 696:0.13018891 1017:0.13018891 1333:0.13018891 1500:0.13018891 1660:0.13018891 1719:0.13018891 1750:0.13018891 1858:0.13018891 2087:0.13018891 2561:0.13018891 2567:0.13018891 2762:0.13018891 3146:0.13018891 3190:0.13018891 3364:0.26037782 3434:0.26037782 3771:0.26037782 3782:0.13018891 3904:0.65094453 3910:0.13018891 3919:0.13018891 #
0.96670822827068225713276206079172 4:0.20412415 66:0.20412415 120:0.20412415 128:0.20412415 152:0.20412415 180:0.20412415 436:0.20412415 446:0.20412415 686:0.20412415 741:0.20412415 742:0.20412415 1365:0.20412415 1366:0.20412415 1990:0.20412415 2116:0.20412415 2155:0.20412415 2237:0.20412415 2410:0.20412415 2428:0.20412415 3213:0.40824831 3251:0.20412415 #
1 87:0.20412415 88:0.20412415 193:0.20412415 320:0.20412415 518:0.20412415 703:0.20412415 1221:0.20412415 1448:0.20412415 1500:0.20412415 1525:0.20412415 1573:0.20412415 1577:0.20412415 1670:0.20412415 1677:0.20412415 1928:0.20412415 2351:0.20412415 2561:0.20412415 2566:0.20412415 2792:0.20412415 2794:0.20412415 2916:0.20412415 3364:0.20412415 3366:0.20412415 3904:0.20412415 #
1 7:0.21821789 15:0.21821789 25:0.21821789 152:0.21821789 162:0.21821789 518:0.21821789 529:0.21821789 777:0.21821789 892:0.21821789 897:0.21821789 930:0.21821789 1030:0.21821789 1395:0.21821789 1759:0.21821789 2190:0.21821789 2191:0.21821789 2312:0.21821789 2410:0.21821789 2611:0.21821789 2925:0.21821789 3771:0.21821789 #
0.30576150405796292952587123181729 11:0.16222142 15:0.16222142 320:0.32444283 346:0.16222142 367:0.16222142 407:0.16222142 476:0.16222142 487:0.16222142 1967:0.32444283 1969:0.16222142 1972:0.16222142 2116:0.32444283 2120:0.16222142 2132:0.16222142 2410:0.16222142 2427:0.16222142 2774:0.16222142 2775:0.16222142 3103:0.16222142 3106:0.16222142 3213:0.16222142 3221:0.16222142 3364:0.16222142 3814:0.16222142 3817:0.16222142 3904:0.32444283 #
-1 15:0.2236068 518:0.2236068 906:0.2236068 1219:0.2236068 1305:0.2236068 1749:0.2236068 1985:0.2236068 1990:0.2236068 3213:0.44721359 3517:0.2236068 3519:0.2236068 3541:0.44721359 3642:0.2236068 3647:0.2236068 #
-1 11:0.21320072 110:0.21320072 518:0.21320072 1462:0.21320072 1463:0.21320072 1836:0.21320072 2444:0.21320072 3541:0.63960212 3619:0.21320072 3647:0.42640144 3880:0.21320072 #
-1 135:0.22941573 232:0.22941573 247:0.22941573 518:0.22941573 2009:0.22941573 2410:0.22941573 2429:0.22941573 2459:0.22941573 2481:0.22941573 2507:0.22941573 3213:0.22941573 3541:0.45883146 3647:0.22941573 3652:0.22941573 3755:0.22941573 3945:0.22941573 #
-1 11:0.2773501 15:0.5547002 19:0.2773501 476:0.2773501 627:0.2773501 2237:0.2773501 2301:0.2773501 3541:0.2773501 3855:0.2773501 3858:0.2773501 #
-1 11:0.11111111 365:0.11111111 476:0.11111111 486:0.11111111 983:0.11111111 985:0.11111111 1451:0.11111111 1914:0.11111111 2538:0.22222222 3213:0.22222222 3218:0.11111111 3290:0.11111111 3541:0.66666669 3642:0.11111111 3647:0.55555558 3854:0.11111111 #
1 66:0.21320072 77:0.21320072 120:0.21320072 337:0.21320072 476:0.21320072 648:0.21320072 1064:0.21320072 1316:0.21320072 1398:0.21320072 1401:0.21320072 1420:0.21320072 1500:0.21320072 1501:0.21320072 1759:0.21320072 1769:0.21320072 2497:0.21320072 2524:0.21320072 3123:0.21320072 3303:0.21320072 3364:0.21320072 3422:0.21320072 3524:0.21320072 #
0.92442081082959814963828648615163 7:0.28867513 476:0.28867513 630:0.28867513 1511:0.28867513 1515:0.28867513 1687:0.28867513 1711:0.28867513 2459:0.28867513 2483:0.28867513 2763:0.28867513 2847:0.28867513 3468:0.28867513 #
1 15:0.17677669 152:0.17677669 155:0.17677669 476:0.17677669 1017:0.17677669 1066:0.17677669 1491:0.17677669 1815:0.35355338 1822:0.17677669 1903:0.17677669 2087:0.17677669 2449:0.17677669 2518:0.17677669 2830:0.17677669 3103:0.17677669 3152:0.17677669 3190:0.17677669 3201:0.17677669 3364:0.35355338 3399:0.17677669 3425:0.17677669 3730:0.17677669 3733:0.17677669 3904:0.17677669 3939:0.17677669 3967:0.17677669 #
1 7:0.19611613 199:0.19611613 202:0.19611613 518:0.19611613 567:0.19611613 965:0.19611613 966:0.19611613 1007:0.19611613 1008:0.19611613 1342:0.19611613 1343:0.19611613 1618:0.19611613 1620:0.19611613 1638:0.19611613 1719:0.19611613 1754:0.19611613 1976:0.19611613 1978:0.19611613 2524:0.19611613 2525:0.19611613 3168:0.19611613 3170:0.19611613 3541:0.19611613 3568:0.19611613 3939:0.19611613 3944:0.19611613 #
1 436:0.23570226 446:0.23570226 686:0.23570226 692:0.23570226 857:0.23570226 1373:0.23570226 2125:0.23570226 2129:0.23570226 2367:0.23570226 2368:0.23570226 2508:0.23570226 2700:0.23570226 2702:0.23570226 2934:0.23570226 3017:0.23570226 3213:0.23570226 3245:0.23570226 3855:0.23570226 #
-1 320:0.40824831 325:0.40824831 436:0.40824831 476:0.40824831 631:0.40824831 2488:0.40824831 #
-1 65:0.16903085 152:0.16903085 314:0.16903085 315:0.16903085 346:0.16903085 347:0.16903085 436:0.16903085 1314:0.16903085 1316:0.50709254 2016:0.16903085 2507:0.16903085 3213:0.16903085 3289:0.16903085 3364:0.50709254 3426:0.16903085 3852:0.33806169 #
-1 7:0.18569534 152:0.18569534 232:0.18569534 427:0.18569534 428:0.18569534 476:0.18569534 512:0.18569534 1280:0.18569534 1281:0.18569534 1296:0.18569534 1359:0.18569534 1362:0.18569534 1509:0.18569534 1552:0.18569534 1858:0.18569534 2116:0.18569534 2147:0.18569534 2208:0.18569534 2377:0.18569534 2378:0.18569534 2870:0.18569534 2875:0.18569534 3213:0.18569534 3251:0.18569534 3507:0.18569534 3510:0.18569534 3726:0.18569534 3755:0.18569534 3757:0.18569534 #
-1 4:0.31234753 7:0.15617377 85:0.15617377 86:0.15617377 297:0.15617377 476:0.15617377 624:0.15617377 912:0.15617377 1558:0.15617377 1560:0.15617377 1573:0.15617377 1577:0.15617377 1719:0.31234753 1745:0.15617377 1759:0.15617377 2064:0.15617377 2116:0.4685213 2138:0.15617377 2140:0.15617377 2186:0.15617377 2237:0.15617377 2284:0.15617377 2410:0.15617377 3213:0.15617377 3364:0.15617377 3369:0.15617377 3783:0.15617377 #
-1 320:0.2236068 346:0.44721359 347:0.2236068 436:0.2236068 1812:0.2236068 1967:0.2236068 1989:0.2236068 2410:0.2236068 2417:0.2236068 2561:0.2236068 2564:0.2236068 3070:0.2236068 3072:0.2236068 3239:0.2236068 3245:0.2236068 3364:0.2236068 3409:0.2236068 #
1 11:0.26726124 518:0.26726124 528:0.26726124 892:0.26726124 897:0.26726124 3316:0.26726124 3364:0.26726124 3372:0.26726124 3541:0.53452247 3645:0.26726124 3647:0.26726124 #
1 328:0.26726124 329:0.26726124 518:0.26726124 2410:0.26726124 2436:0.26726124 3213:0.26726124 3224:0.26726124 3507:0.26726124 3541:0.53452247 3553:0.26726124 3647:0.26726124 #
-0.45505810191521522956037415497121 91:0.28867513 518:0.28867513 969:0.28867513 1404:0.28867513 2116:0.28867513 2188:0.28867513 2682:0.28867513 2997:0.28867513 2998:0.28867513 3120:0.28867513 3364:0.28867513 3418:0.28867513 #
-0.74863563715027492406761666643433 518:0.28867513 1021:0.28867513 1092:0.28867513 1147:0.28867513 1916:0.28867513 3485:0.28867513 3541:0.57735026 3559:0.28867513 3647:0.28867513 #
-1 518:0.33333334 610:0.33333334 1778:0.33333334 2669:0.33333334 3541:0.66666669 3647:0.33333334 #
0.60239301786271259864236071734922 4:0.40824831 346:0.40824831 347:0.40824831 436:0.40824831 456:0.40824831 2459:0.40824831 #
1 15:0.44721359 265:0.44721359 266:0.44721359 476:0.44721359 3771:0.44721359 #
0.90536389993807242504431087581906 346:0.5 347:0.5 436:0.5 1045:0.5 #
0.27378494239415751554389544253354 15:0.25 137:0.25 140:0.25 476:0.25 513:0.25 850:0.5 1573:0.25 2212:0.25 2984:0.25 3364:0.25 3369:0.25 3527:0.25 3528:0.25 #
1 4:0.2773501 476:0.2773501 660:0.2773501 1719:0.2773501 1745:0.2773501 1858:0.2773501 2116:0.2773501 2140:0.2773501 2701:0.2773501 3097:0.2773501 3213:0.2773501 3693:0.2773501 3939:0.2773501 #
-0.90628537961143906809269310542732 265:0.37796447 476:0.37796447 892:0.37796447 896:0.37796447 1952:0.37796447 2215:0.37796447 3316:0.37796447 #
-1 7:0.33806169 15:0.16903085 265:0.16903085 476:0.16903085 618:0.16903085 1341:0.16903085 1398:0.16903085 1399:0.16903085 1525:0.16903085 1558:0.16903085 1561:0.16903085 1563:0.16903085 1687:0.16903085 1689:0.16903085 1703:0.16903085 1759:0.16903085 1780:0.16903085 1990:0.16903085 2002:0.16903085 2675:0.16903085 2984:0.16903085 3190:0.16903085 3191:0.16903085 3213:0.16903085 3223:0.16903085 3396:0.16903085 3448:0.16903085 3449:0.16903085 3771:0.16903085 3772:0.16903085 3777:0.16903085 3904:0.16903085 #
-1 476:1 #
1 518:0.5 1618:0.5 1648:0.5 3541:0.5 #
1 410:0.25819889 518:0.25819889 1904:0.25819889 2010:0.25819889 2410:0.25819889 2442:0.25819889 3070:0.25819889 3468:0.25819889 3471:0.25819889 3541:0.51639777 3647:0.25819889 3904:0.25819889 #
1 518:0.44721359 615:0.44721359 3541:0.44721359 3559:0.44721359 3874:0.44721359 #
1 481:0.70710677 3541:0.70710677 #
1 11:0.28867513 1035:0.28867513 1036:0.28867513 1476:0.28867513 1573:0.28867513 1944:0.28867513 3541:0.57735026 3582:0.28867513 3647:0.28867513 #
-1 7:0.19611613 199:0.19611613 202:0.19611613 518:0.19611613 567:0.19611613 965:0.19611613 966:0.19611613 1007:0.19611613 1008:0.19611613 1342:0.19611613 1343:0.19611613 1618:0.19611613 1620:0.19611613 1638:0.19611613 1719:0.19611613 1754:0.19611613 1976:0.19611613 1978:0.19611613 2524:0.19611613 2525:0.19611613 3168:0.19611613 3170:0.19611613 3541:0.19611613 3568:0.19611613 3939:0.19611613 3944:0.19611613 #
1 7:0.57735026 476:0.57735026 478:0.57735026 #
1 7:0.57735026 476:0.57735026 485:0.57735026 #
1 476:0.44721359 1244:0.44721359 1245:0.44721359 1990:0.44721359 1994:0.44721359 #
1 476:0.57735026 2028:0.57735026 2034:0.57735026 #
0.55196636124961362401819542355952 152:0.35355338 187:0.35355338 476:0.35355338 892:0.35355338 896:0.35355338 2020:0.35355338 3904:0.35355338 3945:0.35355338 #
-1 1035:0.5 1036:0.5 1573:0.5 3541:0.5 #
-1 518:0.44721359 615:0.44721359 2116:0.44721359 3541:0.44721359 3874:0.44721359 #
-1 11:0.33333334 518:0.33333334 528:0.33333334 1618:0.33333334 1621:0.33333334 3070:0.33333334 3074:0.33333334 3541:0.33333334 3636:0.33333334 #
-1 36:0.22941573 37:0.22941573 518:0.22941573 617:0.22941573 670:0.22941573 727:0.22941573 1795:0.22941573 1990:0.22941573 2087:0.22941573 2464:0.22941573 2763:0.45883146 3213:0.22941573 3259:0.22941573 3541:0.22941573 3628:0.22941573 3904:0.22941573 #
-1 11:0.40824831 479:0.40824831 481:0.40824831 1220:0.40824831 1591:0.40824831 3541:0.40824831 #
1 382:0.17149858 384:0.17149858 476:0.17149858 510:0.17149858 1067:0.17149858 1068:0.17149858 1448:0.17149858 1449:0.17149858 1525:0.34299716 1548:0.17149858 1549:0.17149858 1618:0.17149858 1719:0.17149858 1745:0.17149858 2208:0.17149858 2209:0.17149858 2372:0.17149858 2373:0.17149858 2383:0.17149858 2384:0.17149858 2593:0.17149858 3090:0.17149858 3091:0.17149858 3213:0.34299716 3220:0.17149858 3289:0.17149858 3852:0.17149858 3853:0.17149858 #
1 290:0.31622776 476:0.31622776 1759:0.31622776 1858:0.31622776 2208:0.31622776 2212:0.31622776 2237:0.31622776 2377:0.31622776 3185:0.31622776 3186:0.31622776 #
1 7:0.2236068 476:0.2236068 906:0.2236068 907:0.2236068 1208:0.2236068 1525:0.2236068 1541:0.2236068 1759:0.44721359 2698:0.2236068 3213:0.2236068 3517:0.2236068 3519:0.2236068 3541:0.44721359 3647:0.2236068 #
1 152:0.21821789 165:0.21821789 232:0.21821789 476:0.21821789 491:0.21821789 1280:0.21821789 1578:0.21821789 1609:0.21821789 1616:0.21821789 1719:0.21821789 1725:0.21821789 2057:0.21821789 2059:0.21821789 2165:0.21821789 2192:0.21821789 3153:0.21821789 3213:0.21821789 3541:0.21821789 3612:0.21821789 3755:0.21821789 3757:0.21821789 #
-1 382:0.17149858 384:0.17149858 476:0.17149858 510:0.17149858 1067:0.17149858 1068:0.17149858 1448:0.17149858 1449:0.17149858 1525:0.34299716 1548:0.17149858 1549:0.17149858 1618:0.17149858 1719:0.17149858 1745:0.17149858 2208:0.17149858 2209:0.17149858 2372:0.17149858 2373:0.17149858 2383:0.17149858 2384:0.17149858 2593:0.17149858 3090:0.17149858 3091:0.17149858 3213:0.34299716 3220:0.17149858 3289:0.17149858 3852:0.17149858 3853:0.17149858 #
-1 476:0.44721359 1759:0.44721359 1764:0.44721359 2597:0.44721359 3507:0.44721359 #
-1 476:1 #
1 11:0.37796447 518:0.37796447 528:0.37796447 1838:0.37796447 3150:0.37796447 3156:0.37796447 3541:0.37796447 #
1 11:0.57735026 518:0.28867513 610:0.28867513 1045:0.28867513 3070:0.28867513 3074:0.28867513 3541:0.28867513 3545:0.28867513 3755:0.28867513 #
0.46905038631731382769984861624835 518:0.35355338 574:0.35355338 2116:0.35355338 3070:0.35355338 3074:0.35355338 3316:0.35355338 3541:0.35355338 3636:0.35355338 #
-1 7:0.16222142 141:0.16222142 152:0.16222142 153:0.16222142 518:0.32444283 531:0.16222142 709:0.16222142 744:0.16222142 873:0.16222142 1041:0.16222142 1042:0.16222142 1206:0.16222142 1428:0.16222142 1609:0.16222142 1659:0.16222142 1795:0.16222142 1803:0.16222142 2222:0.16222142 2237:0.16222142 2246:0.16222142 2459:0.16222142 2478:0.16222142 2611:0.16222142 2615:0.16222142 2984:0.16222142 3070:0.32444283 3074:0.32444283 3904:0.16222142 3921:0.16222142 #
-1 11:0.60302269 518:0.30151135 528:0.30151135 1544:0.30151135 1547:0.30151135 2792:0.30151135 3070:0.30151135 3074:0.30151135 #
-0.18025083806289310395243319362635 20:0.40824831 518:0.40824831 796:0.40824831 1247:0.40824831 2966:0.40824831 3541:0.40824831 #
-1 7:0.37796447 20:0.37796447 518:0.37796447 2109:0.37796447 2898:0.37796447 2900:0.37796447 3541:0.37796447 #
0.07742530728701517428458345193576 15:0.21320072 152:0.21320072 232:0.21320072 243:0.21320072 436:0.21320072 891:0.21320072 1322:0.21320072 1687:0.21320072 1921:0.21320072 1931:0.21320072 2042:0.21320072 2410:0.21320072 2561:0.21320072 2563:0.21320072 2984:0.21320072 3364:0.21320072 3409:0.21320072 3507:0.21320072 3515:0.21320072 3728:0.21320072 3802:0.21320072 3814:0.21320072 #
1 476:0.44721359 651:0.44721359 892:0.44721359 896:0.44721359 3541:0.44721359 #
-1 476:1 #
1 518:0.25819889 603:0.25819889 1371:0.25819889 1670:0.25819889 1795:0.25819889 1843:0.25819889 2364:0.25819889 2488:0.25819889 2491:0.25819889 2628:0.25819889 3070:0.25819889 3074:0.25819889 3213:0.25819889 3267:0.25819889 3764:0.25819889 #
1 7:0.30151135 15:0.30151135 232:0.30151135 238:0.30151135 518:0.30151135 1573:0.30151135 2094:0.30151135 2619:0.30151135 2992:0.30151135 3213:0.30151135 3239:0.30151135 #
0.65110537783463806604800083732698 4:0.20851441 7:0.41702881 8:0.20851441 337:0.20851441 340:0.20851441 518:0.20851441 574:0.20851441 1281:0.20851441 1471:0.20851441 1511:0.20851441 1513:0.20851441 1795:0.20851441 2116:0.20851441 2119:0.20851441 2459:0.20851441 2474:0.20851441 3070:0.20851441 3074:0.20851441 3541:0.20851441 3581:0.20851441 #
1 328:0.19245009 331:0.19245009 518:0.19245009 583:0.19245009 727:0.19245009 1428:0.19245009 1961:0.19245009 2237:0.19245009 2410:0.38490018 2428:0.19245009 2429:0.19245009 2464:0.38490018 2467:0.38490018 2507:0.19245009 3070:0.19245009 3074:0.19245009 3291:0.19245009 3297:0.19245009 #
-1 15:0.20851441 346:0.20851441 347:0.20851441 436:0.20851441 441:0.20851441 1990:0.20851441 1992:0.20851441 2028:0.20851441 2032:0.20851441 2444:0.20851441 2446:0.20851441 2843:0.20851441 2984:0.20851441 3541:0.41702881 3619:0.20851441 3647:0.20851441 3904:0.41702881 #
-1 476:0.23570226 767:0.23570226 802:0.23570226 1017:0.23570226 1394:0.23570226 1618:0.23570226 1650:0.23570226 2508:0.23570226 3316:0.23570226 3541:0.47140452 3557:0.23570226 3690:0.23570226 3692:0.23570226 3701:0.23570226 3880:0.23570226 #
-1 258:0.15811388 346:0.15811388 347:0.15811388 436:0.15811388 464:0.15811388 913:0.15811388 925:0.15811388 1281:0.15811388 1291:0.15811388 1670:0.15811388 1759:0.15811388 1762:0.15811388 1900:0.15811388 1904:0.15811388 1921:0.15811388 1930:0.15811388 2237:0.31622776 2417:0.15811388 2537:0.15811388 2850:0.15811388 2862:0.15811388 2896:0.15811388 2984:0.15811388 3015:0.15811388 3123:0.15811388 3213:0.15811388 3278:0.15811388 3364:0.31622776 3393:0.15811388 3433:0.15811388 3749:0.15811388 3802:0.15811388 3821:0.15811388 3847:0.15811388 #
-1 81:0.16903085 84:0.16903085 250:0.16903085 251:0.16903085 476:0.16903085 654:0.16903085 1618:0.16903085 1650:0.16903085 1724:0.16903085 1990:0.16903085 1994:0.16903085 2044:0.16903085 2045:0.16903085 2237:0.16903085 2264:0.16903085 2779:0.16903085 2780:0.16903085 2843:0.16903085 2844:0.16903085 3160:0.16903085 3161:0.16903085 3190:0.16903085 3202:0.16903085 3269:0.16903085 3276:0.16903085 3541:0.16903085 3690:0.16903085 3692:0.16903085 3735:0.33806169 3745:0.16903085 3764:0.16903085 3765:0.16903085 #
-1 152:0.22941573 436:0.22941573 443:0.22941573 892:0.22941573 893:0.22941573 931:0.22941573 932:0.22941573 1181:0.22941573 1352:0.22941573 1371:0.22941573 1506:0.22941573 1552:0.22941573 1618:0.22941573 1853:0.22941573 2459:0.22941573 2799:0.22941573 3316:0.22941573 3318:0.22941573 3334:0.22941573 #
1 7:0.26726124 52:0.26726124 518:0.26726124 577:0.26726124 1206:0.26726124 1316:0.26726124 1317:0.26726124 1352:0.26726124 1356:0.26726124 1985:0.26726124 1986:0.26726124 2237:0.26726124 2246:0.26726124 2611:0.26726124 #
1 152:0.25 518:0.5 531:0.25 892:0.25 897:0.25 1275:0.25 1544:0.25 2618:0.25 2706:0.25 3070:0.25 3364:0.25 3370:0.25 3541:0.25 #
1 137:0.2 232:0.2 356:0.2 357:0.2 518:0.2 584:0.2 1308:0.2 1719:0.40000001 2130:0.2 2488:0.40000001 2799:0.2 3045:0.40000001 3190:0.2 3291:0.2 3294:0.2 3467:0.2 #
-1 518:0.25 605:0.25 892:0.25 897:0.25 1052:0.25 1352:0.25 1504:0.25 1759:0.25 1767:0.25 2561:0.25 2568:0.25 2843:0.25 3190:0.25 3291:0.25 3364:0.25 3541:0.25 #
-1 152:0.30151135 297:0.30151135 476:0.30151135 1521:0.30151135 1719:0.60302269 1858:0.30151135 2537:0.30151135 3251:0.30151135 #
-0.31963478701084147015620828824467 6:0.35355338 518:0.35355338 526:0.35355338 892:0.35355338 897:0.35355338 2028:0.35355338 3070:0.35355338 3075:0.35355338 #
-0.10145307725391172759543678694172 232:0.28867513 240:0.28867513 518:0.28867513 570:0.28867513 892:0.28867513 897:0.28867513 1815:0.28867513 2125:0.28867513 2561:0.28867513 2563:0.28867513 3070:0.28867513 3075:0.28867513 #
-1 81:0.30151135 206:0.30151135 518:0.30151135 892:0.30151135 897:0.30151135 2850:0.30151135 3269:0.30151135 3735:0.30151135 3744:0.30151135 3787:0.30151135 3830:0.30151135 #
1 81:0.17677669 84:0.17677669 250:0.17677669 251:0.17677669 476:0.17677669 500:0.17677669 845:0.17677669 846:0.17677669 1618:0.17677669 1650:0.17677669 1724:0.17677669 1990:0.17677669 1994:0.17677669 2044:0.17677669 2045:0.17677669 2237:0.17677669 2264:0.17677669 2779:0.17677669 2780:0.17677669 2843:0.17677669 2844:0.17677669 3160:0.17677669 3161:0.17677669 3190:0.17677669 3202:0.17677669 3269:0.17677669 3276:0.17677669 3690:0.17677669 3735:0.17677669 3745:0.17677669 3764:0.17677669 3765:0.17677669 #
-0.098525430477221412339794426316075 226:0.26726124 227:0.26726124 518:0.26726124 581:0.26726124 740:0.26726124 791:0.26726124 1844:0.26726124 1845:0.26726124 2299:0.26726124 2300:0.26726124 2816:0.26726124 3120:0.26726124 3364:0.26726124 3541:0.26726124 #
0.19939966555261282032951442033664 6:0.14433756 7:0.28867513 9:0.14433756 14:0.14433756 15:0.28867513 476:0.14433756 659:0.14433756 918:0.14433756 1044:0.14433756 1064:0.14433756 1281:0.14433756 1352:0.14433756 1369:0.14433756 1386:0.14433756 1398:0.14433756 1487:0.14433756 1759:0.14433756 1769:0.14433756 2449:0.14433756 2450:0.14433756 2778:0.14433756 3068:0.14433756 3305:0.14433756 3364:0.14433756 3369:0.14433756 3541:0.14433756 3655:0.14433756 3771:0.14433756 3776:0.14433756 3802:0.14433756 3904:0.43301269 3906:0.14433756 3910:0.14433756 3937:0.14433756 #
-0.061823212176869549172586459917511 7:0.25 15:0.25 220:0.25 476:0.25 658:0.25 983:0.25 985:0.25 1451:0.25 1975:0.25 2962:0.25 3533:0.25 3541:0.5 3880:0.25 #
-1 11:0.30151135 476:0.30151135 648:0.30151135 1990:0.30151135 1994:0.30151135 2377:0.30151135 2926:0.30151135 3364:0.30151135 3541:0.30151135 3618:0.30151135 3939:0.30151135 #
-1 232:0.25819889 376:0.25819889 476:0.25819889 668:0.25819889 686:0.25819889 825:0.25819889 2390:0.25819889 2410:0.25819889 2508:0.25819889 2512:0.25819889 2548:0.25819889 3364:0.25819889 3369:0.25819889 3527:0.25819889 3541:0.25819889 #
-1 6:0.2857143 15:0.14285715 232:0.14285715 425:0.14285715 476:0.14285715 624:0.14285715 721:0.14285715 723:0.14285715 1390:0.14285715 1392:0.14285715 1471:0.14285715 1491:0.14285715 1687:0.2857143 1700:0.14285715 1997:0.14285715 2057:0.14285715 2062:0.14285715 2116:0.14285715 2180:0.14285715 2210:0.14285715 2875:0.14285715 3269:0.14285715 3364:0.14285715 3415:0.14285715 3541:0.14285715 3612:0.14285715 3783:0.2857143 3785:0.14285715 3798:0.14285715 3904:0.42857143 3914:0.14285715 3920:0.14285715 #
-1 7:0.41208169 320:0.13736056 518:0.13736056 536:0.13736056 719:0.13736056 721:0.13736056 995:0.13736056 1216:0.13736056 1217:0.13736056 1687:0.13736056 1689:0.13736056 1714:0.13736056 1795:0.13736056 2046:0.13736056 2087:0.13736056 2410:0.27472112 2436:0.13736056 2442:0.13736056 2595:0.13736056 2598:0.13736056 2758:0.13736056 2880:0.13736056 2984:0.27472112 3114:0.13736056 3115:0.13736056 3213:0.27472112 3224:0.13736056 3364:0.13736056 3366:0.13736056 3541:0.13736056 3904:0.27472112 3909:0.13736056 3920:0.13736056 #
1 303:0.16666667 320:0.16666667 363:0.16666667 476:0.16666667 518:0.16666667 670:0.16666667 675:0.16666667 892:0.16666667 897:0.16666667 1015:0.33333334 1016:0.16666667 1352:0.16666667 1486:0.16666667 1670:0.16666667 1742:0.16666667 1795:0.16666667 1801:0.16666667 1815:0.16666667 2459:0.33333334 2481:0.16666667 2647:0.16666667 2649:0.16666667 2989:0.16666667 3213:0.16666667 3238:0.16666667 3730:0.16666667 3814:0.16666667 3866:0.16666667 3885:0.16666667 3887:0.16666667 #
1 4:0.2773501 152:0.2773501 182:0.2773501 518:0.2773501 704:0.2773501 892:0.2773501 897:0.2773501 1759:0.2773501 1921:0.2773501 3316:0.2773501 3319:0.2773501 3541:0.2773501 3606:0.2773501 #
1 152:0.23570226 217:0.23570226 436:0.23570226 443:0.23570226 1352:0.23570226 1353:0.23570226 1812:0.23570226 1814:0.23570226 2561:0.47140452 2568:0.23570226 2875:0.23570226 2882:0.23570226 3751:0.23570226 3783:0.23570226 3792:0.23570226 #
-1 4:0.40824831 436:0.40824831 438:0.40824831 993:0.40824831 1352:0.40824831 2488:0.40824831 #
-1 518:0.25819889 889:0.25819889 1495:0.25819889 1759:0.25819889 1812:0.25819889 1814:0.25819889 2508:0.25819889 2561:0.51639777 2573:0.25819889 3308:0.25819889 3783:0.25819889 3790:0.25819889 #
-1 1759:1 #
-1 137:0.31622776 138:0.31622776 152:0.15811388 179:0.15811388 320:0.31622776 367:0.15811388 436:0.31622776 464:0.15811388 466:0.31622776 3213:0.31622776 3222:0.31622776 3821:0.31622776 3822:0.31622776 #
0.15777730016705326931969466386363 382:0.28867513 383:0.28867513 476:0.28867513 987:0.28867513 1383:0.28867513 1578:0.28867513 1687:0.28867513 1715:0.28867513 2201:0.28867513 3107:0.28867513 3213:0.28867513 3220:0.28867513 #
1 7:0.20851441 15:0.20851441 265:0.20851441 518:0.20851441 527:0.20851441 686:0.20851441 697:0.20851441 892:0.20851441 897:0.20851441 1591:0.20851441 1618:0.20851441 1620:0.20851441 1687:0.20851441 1694:0.20851441 3280:0.20851441 3537:0.20851441 3541:0.41702881 3647:0.20851441 3939:0.20851441 3954:0.20851441 #
1 15:0.1490712 265:0.1490712 281:0.1490712 518:0.1490712 617:0.1490712 805:0.1490712 1218:0.1490712 1990:0.1490712 1999:0.1490712 2028:0.1490712 2508:0.1490712 2934:0.1490712 3070:0.1490712 3074:0.1490712 3168:0.1490712 3190:0.1490712 3213:0.1490712 3239:0.1490712 3364:0.2981424 3421:0.1490712 3541:0.1490712 3611:0.1490712 3731:0.1490712 3732:0.1490712 3830:0.1490712 3898:0.1490712 3904:0.59628481 #
1 7:0.2773501 476:0.2773501 659:0.2773501 670:0.2773501 1858:0.2773501 1873:0.2773501 1990:0.2773501 2057:0.2773501 2062:0.2773501 3904:0.5547002 #
0.13918967948429000758281404159789 4:0.57735026 505:0.57735026 1687:0.57735026 #
-1 1:0.23570226 7:0.47140452 10:0.23570226 108:0.23570226 152:0.23570226 476:0.23570226 1376:0.23570226 1440:0.23570226 1478:0.23570226 1479:0.23570226 2028:0.23570226 2197:0.23570226 3123:0.23570226 3541:0.23570226 3611:0.23570226 #
1 468:0.57735026 1759:0.57735026 2116:0.57735026 #
-1 468:0.44721359 2101:0.44721359 3541:0.44721359 3613:0.44721359 3904:0.44721359 #
-1 337:0.37796447 468:0.37796447 1858:0.37796447 3541:0.37796447 3603:0.37796447 3904:0.37796447 3916:0.37796447 #
-1 152:0.39223227 252:0.19611613 476:0.19611613 491:0.19611613 1313:0.19611613 1424:0.19611613 1425:0.19611613 1578:0.19611613 1579:0.19611613 1759:0.19611613 1921:0.19611613 2100:0.19611613 2237:0.19611613 2247:0.19611613 2273:0.19611613 2781:0.19611613 2850:0.19611613 2851:0.19611613 3541:0.19611613 3904:0.39223227 #
-1 15:0.11867817 265:0.11867817 281:0.11867817 518:0.11867817 617:0.11867817 1256:0.11867817 1267:0.11867817 1470:0.11867817 1679:0.11867817 1950:0.11867817 1951:0.11867817 3251:0.35603449 3256:0.23735633 3257:0.11867817 3291:0.35603449 3541:0.11867817 3904:0.59339082 3910:0.11867817 3962:0.35603449 3969:0.11867817 #
-1 420:0.24253562 476:0.24253562 507:0.24253562 670:0.24253562 1041:0.24253562 1043:0.24253562 1281:0.24253562 1300:0.24253562 1491:0.24253562 2984:0.24253562 3541:0.24253562 3653:0.24253562 3760:0.24253562 3814:0.24253562 3818:0.24253562 3904:0.24253562 3945:0.24253562 #
1 476:0.33333334 639:0.33333334 1812:0.33333334 1814:0.33333334 2561:0.33333334 2565:0.33333334 2981:0.33333334 3783:0.33333334 3790:0.33333334 #
1 376:0.2773501 378:0.2773501 422:0.2773501 436:0.2773501 446:0.2773501 686:0.2773501 693:0.2773501 1365:0.2773501 1366:0.2773501 2309:0.2773501 2377:0.2773501 3213:0.2773501 3219:0.2773501 #
1 6:0.35355338 320:0.35355338 325:0.35355338 436:0.35355338 439:0.35355338 727:0.35355338 3308:0.35355338 3541:0.35355338 #
0.22802929367325455722870231056731 50:0.18257418 346:0.18257418 347:0.18257418 436:0.18257418 446:0.18257418 686:0.18257418 691:0.18257418 727:0.18257418 1017:0.18257418 1313:0.18257418 1314:0.18257418 1550:0.36514837 1719:0.18257418 1759:0.18257418 1762:0.18257418 2101:0.18257418 2187:0.18257418 2410:0.36514837 2423:0.18257418 2500:0.18257418 2778:0.18257418 2830:0.18257418 3291:0.18257418 3298:0.18257418 #
1 7:0.22941573 436:0.22941573 446:0.22941573 686:0.22941573 695:0.22941573 899:0.45883146 1410:0.22941573 1411:0.22941573 1572:0.22941573 1795:0.22941573 1826:0.22941573 2101:0.22941573 3213:0.22941573 3375:0.22941573 3735:0.22941573 3888:0.22941573 #
-0.85504591157593390349234141467605 436:0.30151135 446:0.30151135 668:0.30151135 686:0.30151135 1618:0.30151135 2541:0.30151135 2542:0.30151135 2748:0.30151135 3151:0.30151135 3158:0.30151135 3364:0.30151135 #
-1 7:0.34815532 15:0.34815532 436:0.17407766 441:0.17407766 703:0.17407766 1180:0.17407766 1281:0.17407766 1365:0.17407766 1366:0.17407766 1956:0.17407766 2080:0.17407766 2116:0.17407766 2208:0.17407766 2410:0.34815532 2422:0.17407766 3213:0.34815532 3326:0.17407766 3359:0.17407766 3360:0.17407766 3507:0.17407766 3514:0.17407766 #
-0.70764482026471586806337654707022 7:0.31622776 399:0.31622776 476:0.31622776 686:0.31622776 1221:0.31622776 1223:0.31622776 1359:0.31622776 1618:0.31622776 1620:0.31622776 1903:0.31622776 #
-1 476:0.33333334 633:0.33333334 1812:0.33333334 1814:0.33333334 2500:0.33333334 2561:0.33333334 2565:0.33333334 3783:0.33333334 3790:0.33333334 #
1 15:0.22941573 149:0.22941573 206:0.22941573 289:0.22941573 518:0.22941573 857:0.22941573 1193:0.22941573 1352:0.22941573 2581:0.22941573 3326:0.22941573 3329:0.22941573 3541:0.22941573 3830:0.22941573 3832:0.22941573 3837:0.22941573 3904:0.45883146 #
0.81873285519278771182882792345481 15:0.17407766 476:0.17407766 741:0.17407766 883:0.17407766 1281:0.17407766 1511:0.17407766 1520:0.17407766 1535:0.17407766 1544:0.17407766 1959:0.17407766 1990:0.17407766 3036:0.17407766 3037:0.17407766 3541:0.34815532 3607:0.17407766 3663:0.17407766 3718:0.17407766 3904:0.52223295 3907:0.17407766 3918:0.17407766 3930:0.17407766 3939:0.17407766 #
1 232:0.2773501 476:0.2773501 1184:0.2773501 1478:0.2773501 1903:0.2773501 2091:0.2773501 2390:0.2773501 2907:0.2773501 2967:0.2773501 3541:0.2773501 3583:0.2773501 3904:0.2773501 3914:0.2773501 #
1 85:0.24253562 141:0.24253562 518:0.24253562 617:0.24253562 1030:0.24253562 2028:0.24253562 2410:0.24253562 2508:0.24253562 2512:0.24253562 3505:0.24253562 3506:0.24253562 3541:0.24253562 3549:0.24253562 3904:0.48507124 #
1 468:0.40824831 1281:0.40824831 1300:0.40824831 1687:0.40824831 2459:0.40824831 3904:0.40824831 #
-1 518:0.23570226 1511:0.23570226 1759:0.23570226 1953:0.23570226 1954:0.23570226 3070:0.23570226 3074:0.23570226 3112:0.23570226 3113:0.23570226 3190:0.23570226 3517:0.23570226 3541:0.47140452 3585:0.23570226 3647:0.23570226 3904:0.23570226 #
-1 6:0.2236068 289:0.2236068 320:0.2236068 362:0.2236068 476:0.2236068 1383:0.2236068 1385:0.2236068 1858:0.2236068 1860:0.2236068 2116:0.2236068 2321:0.2236068 3364:0.2236068 3436:0.2236068 3505:0.2236068 3506:0.2236068 3904:0.44721359 3926:0.2236068 #
1 476:0.33333334 633:0.33333334 1812:0.33333334 1814:0.33333334 2500:0.33333334 2561:0.33333334 2565:0.33333334 3783:0.33333334 3790:0.33333334 #
1 476:0.31622776 619:0.31622776 725:0.31622776 726:0.31622776 774:0.31622776 1200:0.31622776 1201:0.31622776 1618:0.31622776 1858:0.31622776 1864:0.31622776 #
1 15:0.41702881 365:0.20851441 476:0.20851441 703:0.20851441 889:0.20851441 1566:0.20851441 1609:0.20851441 1618:0.20851441 1759:0.20851441 1764:0.20851441 1839:0.20851441 2006:0.20851441 2057:0.20851441 2059:0.20851441 2561:0.20851441 2566:0.20851441 2596:0.20851441 2641:0.20851441 3507:0.20851441 3945:0.20851441 #
1 476:0.44721359 515:0.44721359 1618:0.44721359 1759:0.44721359 2010:0.44721359 #
1 110:0.2 115:0.2 376:0.2 385:0.2 476:0.2 507:0.2 711:0.2 712:0.2 775:0.2 776:0.2 1198:0.2 1199:0.2 1281:0.2 1289:0.2 1306:0.2 1307:0.2 1618:0.2 1981:0.2 1982:0.2 1983:0.2 1984:0.2 2799:0.2 2801:0.2 3239:0.2 3240:0.2 #
-1 120:0.25 410:0.25 476:0.25 883:0.25 892:0.25 896:0.25 1815:0.5 1822:0.25 1857:0.25 2390:0.25 2508:0.25 2830:0.25 3751:0.25 #
-0.76251360119372046941776943640434 120:0.25 417:0.25 476:0.25 1184:0.25 1206:0.25 1432:0.25 1435:0.25 1552:0.25 1554:0.25 1618:0.25 2309:0.25 2410:0.25 2459:0.25 2875:0.25 3245:0.25 3248:0.25 #
-1 248:0.15430336 346:0.30860671 376:0.15430336 379:0.15430336 476:0.15430336 1184:0.15430336 1314:0.15430336 1521:0.15430336 2116:0.15430336 2192:0.77151674 2193:0.30860671 2561:0.15430336 #
-1 476:0.37796447 1812:0.37796447 1814:0.37796447 2561:0.37796447 2565:0.37796447 3783:0.37796447 3790:0.37796447 #
0.29212410370995561814666530153772 476:0.35355338 1759:0.35355338 1784:0.35355338 2204:0.35355338 2237:0.35355338 2254:0.35355338 3103:0.35355338 3106:0.35355338 #
1 6:0.21821789 152:0.21821789 206:0.21821789 320:0.21821789 518:0.21821789 599:0.21821789 925:0.21821789 1290:0.21821789 1511:0.21821789 1719:0.21821789 2301:0.21821789 2304:0.21821789 2321:0.21821789 2788:0.21821789 2941:0.21821789 3364:0.21821789 3436:0.21821789 3541:0.21821789 3904:0.21821789 3913:0.21821789 3972:0.21821789 #
0.43501642006320295763543981593102 7:0.40824831 320:0.20412415 476:0.20412415 624:0.20412415 1026:0.20412415 1446:0.20412415 1759:0.20412415 2116:0.20412415 2119:0.20412415 2444:0.20412415 2446:0.20412415 2984:0.20412415 3541:0.40824831 3619:0.20412415 3647:0.20412415 3771:0.20412415 3821:0.20412415 3823:0.20412415 #
1 6:0.25 7:0.25 9:0.25 152:0.25 164:0.25 476:0.25 491:0.25 1500:0.25 1759:0.25 1764:0.25 3541:0.5 3594:0.25 3647:0.25 #
1 152:0.2 518:0.2 1017:0.2 1656:0.2 1858:0.2 1990:0.2 1999:0.2 2114:0.2 2410:0.2 2442:0.2 2488:0.40000001 2492:0.2 2843:0.2 2959:0.2 3070:0.2 3074:0.2 3096:0.2 3190:0.2 3541:0.2 3701:0.2 3846:0.2 3904:0.2 #
0.77824766823035207430336868128506 7:0.24253562 152:0.24253562 162:0.24253562 337:0.24253562 338:0.24253562 388:0.24253562 436:0.24253562 443:0.24253562 1395:0.24253562 2184:0.24253562 2410:0.24253562 3213:0.24253562 3364:0.24253562 3426:0.24253562 3541:0.24253562 3735:0.24253562 3855:0.24253562 #
-1 518:0.70710677 3541:0.70710677 #
-1 7:0.25 152:0.25 518:0.25 568:0.25 1077:0.25 1398:0.25 1759:0.25 2813:0.25 3541:0.5 3647:0.25 3662:0.25 3686:0.25 3894:0.25 #
-1 7:0.26726124 436:0.26726124 1476:0.26726124 1477:0.26726124 2266:0.26726124 2272:0.26726124 2444:0.26726124 2951:0.26726124 3541:0.53452247 3555:0.26726124 3647:0.26726124 #
-1 7:0.20412415 87:0.20412415 88:0.20412415 320:0.20412415 321:0.20412415 518:0.20412415 1275:0.20412415 1670:0.20412415 1678:0.20412415 2057:0.20412415 2063:0.20412415 2747:0.20412415 3114:0.20412415 3364:0.20412415 3386:0.20412415 3541:0.40824831 3612:0.20412415 3939:0.40824831 #
1 3:0.30151135 476:0.30151135 632:0.30151135 991:0.30151135 2497:0.30151135 2499:0.30151135 2561:0.60302269 3828:0.30151135 #
1 476:0.30151135 633:0.30151135 1812:0.30151135 1814:0.30151135 2500:0.30151135 2561:0.30151135 2565:0.30151135 2875:0.30151135 2882:0.30151135 3783:0.30151135 3792:0.30151135 #
-1 265:0.26726124 476:0.26726124 633:0.26726124 1812:0.26726124 1814:0.26726124 1950:0.26726124 1951:0.26726124 2488:0.26726124 2500:0.26726124 2561:0.26726124 2565:0.26726124 3020:0.26726124 3783:0.26726124 3790:0.26726124 #
-1 152:0.5 155:0.5 476:0.5 3830:0.5 #
-1 152:0.19611613 476:0.19611613 641:0.19611613 925:0.19611613 1026:0.19611613 1093:0.19611613 1686:0.19611613 1687:0.19611613 1749:0.19611613 2055:0.19611613 2114:0.19611613 2410:0.19611613 2435:0.19611613 2464:0.19611613 2465:0.19611613 3020:0.19611613 3190:0.39223227 3251:0.19611613 3273:0.19611613 3325:0.19611613 3541:0.19611613 3707:0.19611613 3830:0.19611613 #
-1 232:0.19245009 320:0.19245009 328:0.19245009 331:0.19245009 364:0.19245009 476:0.19245009 619:0.19245009 721:0.19245009 722:0.19245009 1858:0.19245009 1861:0.19245009 1921:0.19245009 1927:0.19245009 2561:0.38490018 2565:0.19245009 2984:0.19245009 3025:0.19245009 3280:0.19245009 3282:0.19245009 3291:0.19245009 3294:0.19245009 3308:0.19245009 3541:0.19245009 3606:0.19245009 #
1 518:0.30151135 540:0.30151135 819:0.30151135 1333:0.30151135 1618:0.30151135 2902:0.30151135 2997:0.30151135 2998:0.30151135 3541:0.30151135 3591:0.30151135 3874:0.30151135 #
1 4:0.18257418 7:0.18257418 45:0.18257418 120:0.18257418 518:0.18257418 527:0.18257418 912:0.18257418 1466:0.18257418 1659:0.18257418 1795:0.18257418 1803:0.18257418 1948:0.18257418 1949:0.18257418 2390:0.18257418 2934:0.18257418 2936:0.18257418 3070:0.18257418 3081:0.18257418 3190:0.18257418 3204:0.18257418 3213:0.18257418 3224:0.18257418 3291:0.18257418 3292:0.18257418 3541:0.36514837 3647:0.18257418 3888:0.18257418 #
-1 7:0.53452247 19:0.26726124 436:0.26726124 465:0.26726124 1618:0.26726124 1910:0.26726124 3541:0.26726124 3591:0.26726124 3802:0.26726124 3904:0.26726124 3909:0.26726124 #
-1 468:0.31622776 2529:0.31622776 2989:0.31622776 3541:0.63245553 3556:0.31622776 3647:0.31622776 3874:0.31622776 #
-1 476:0.19245009 1396:0.19245009 1609:0.19245009 1616:0.19245009 1719:0.19245009 1745:0.19245009 2210:0.19245009 2410:0.19245009 2436:0.19245009 2464:0.19245009 2467:0.19245009 3213:0.38490018 3249:0.19245009 3541:0.38490018 3647:0.19245009 3650:0.19245009 3735:0.19245009 3755:0.19245009 3764:0.19245009 3770:0.19245009 3837:0.19245009 #
-1 6:0.20851441 7:0.20851441 11:0.20851441 13:0.20851441 149:0.20851441 190:0.20851441 211:0.20851441 337:0.20851441 338:0.20851441 436:0.20851441 440:0.20851441 1281:0.20851441 1738:0.20851441 1759:0.20851441 1784:0.20851441 2057:0.20851441 2058:0.20851441 2062:0.20851441 3103:0.20851441 3541:0.20851441 3594:0.20851441 3811:0.20851441 3904:0.20851441 #
-1 36:0.2981424 39:0.1490712 66:0.1490712 152:0.1490712 167:0.1490712 518:0.1490712 601:0.1490712 991:0.1490712 1535:0.1490712 1687:0.1490712 1712:0.1490712 1795:0.44721359 1826:0.2981424 1858:0.1490712 1921:0.1490712 1924:0.1490712 3020:0.1490712 3068:0.1490712 3114:0.1490712 3375:0.1490712 3378:0.1490712 3541:0.1490712 3653:0.1490712 3735:0.2981424 3739:0.1490712 3760:0.1490712 3771:0.1490712 3779:0.1490712 #
1 320:0.44721359 426:0.44721359 476:0.44721359 2365:0.44721359 2366:0.44721359 #
1 476:0.33333334 636:0.33333334 744:0.33333334 1921:0.33333334 1931:0.33333334 2054:0.33333334 2390:0.33333334 3291:0.33333334 3814:0.33333334 #
1 87:0.33333334 476:0.33333334 1258:0.66666669 1259:0.33333334 1281:0.33333334 1868:0.33333334 #
0.32338840190795636875265017806669 15:0.18257418 81:0.18257418 152:0.18257418 232:0.18257418 316:0.18257418 476:0.18257418 624:0.18257418 892:0.18257418 896:0.18257418 1656:0.18257418 1812:0.18257418 1814:0.18257418 2116:0.18257418 2121:0.18257418 2410:0.18257418 2430:0.18257418 2528:0.18257418 2561:0.18257418 2563:0.18257418 2842:0.18257418 3359:0.18257418 3360:0.18257418 3783:0.18257418 3790:0.18257418 3904:0.36514837 3945:0.18257418 3959:0.18257418 #
1 346:0.44721359 476:0.44721359 1279:0.44721359 1759:0.44721359 1762:0.44721359 #
-1 476:1 #
1 7:0.63245553 468:0.31622776 1921:0.31622776 3213:0.31622776 3214:0.31622776 3541:0.31622776 3606:0.31622776 #
1 436:0.44721359 1365:0.44721359 1366:0.44721359 1618:0.44721359 3541:0.44721359 #
0.45991455877944370511656302369374 30:0.21821789 137:0.21821789 356:0.21821789 436:0.21821789 465:0.21821789 670:0.21821789 1497:0.21821789 1815:0.21821789 1921:0.21821789 1925:0.21821789 2301:0.21821789 3364:0.21821789 3541:0.43643579 3555:0.21821789 3647:0.21821789 3744:0.21821789 3885:0.21821789 3904:0.21821789 #
0.62162378918674510153152823477285 7:0.25 15:0.25 19:0.25 22:0.25 141:0.25 436:0.25 441:0.25 1471:0.25 1472:0.25 2116:0.25 2122:0.25 2410:0.25 2427:0.25 2464:0.25 3541:0.25 3811:0.25 #
-1 336:0.25819889 518:0.25819889 892:0.25819889 897:0.25819889 1040:0.25819889 1281:0.25819889 1287:0.25819889 1742:0.25819889 1812:0.25819889 1814:0.25819889 2875:0.25819889 3085:0.25819889 3783:0.25819889 3792:0.25819889 3904:0.25819889 #
-1 636:0.57735026 900:0.57735026 1120:0.57735026 #
-1 57:0.31622776 518:0.31622776 811:0.31622776 899:0.31622776 1017:0.31622776 1061:0.31622776 2116:0.31622776 2691:0.31622776 3364:0.31622776 3468:0.31622776 #
-1 7:0.26726124 476:0.26726124 485:0.26726124 892:0.26726124 896:0.26726124 1759:0.26726124 1793:0.26726124 2075:0.26726124 3291:0.26726124 3299:0.26726124 3316:0.26726124 3319:0.26726124 3814:0.26726124 3816:0.26726124 #
-1 15:0.24253562 476:0.24253562 487:0.24253562 1759:0.48507124 1773:0.24253562 1795:0.24253562 1857:0.24253562 2116:0.24253562 2459:0.24253562 2481:0.24253562 2488:0.24253562 3213:0.24253562 3223:0.24253562 3468:0.24253562 #
0.27258031475652011454968715042924 7:0.15430336 320:0.15430336 328:0.15430336 476:0.15430336 627:0.15430336 727:0.15430336 729:0.15430336 1323:0.15430336 1759:0.15430336 1812:0.15430336 1813:0.15430336 2011:0.30860671 2237:0.61721343 2253:0.30860671 2283:0.15430336 2410:0.15430336 2428:0.15430336 2934:0.15430336 3190:0.15430336 3507:0.15430336 3508:0.15430336 #
1 476:0.31622776 1070:0.31622776 1071:0.31622776 1424:0.31622776 1425:0.31622776 2610:0.31622776 3148:0.31622776 3541:0.31622776 3751:0.31622776 3752:0.31622776 #
1 120:0.28867513 337:0.28867513 338:0.28867513 436:0.28867513 445:0.28867513 670:0.28867513 1511:0.28867513 2410:0.28867513 3017:0.28867513 3364:0.28867513 3524:0.28867513 3541:0.28867513 #
1 11:0.2773501 290:0.2773501 899:0.2773501 1487:0.2773501 1858:0.5547002 1872:0.2773501 1901:0.2773501 3024:0.2773501 3541:0.2773501 3603:0.2773501 #
-1 476:0.40824831 2028:0.40824831 2365:0.40824831 2366:0.40824831 3541:0.40824831 3611:0.40824831 #
-1 727:0.25819889 731:0.25819889 744:0.25819889 1550:0.25819889 1858:0.25819889 1990:0.25819889 1998:0.25819889 2028:0.25819889 2758:0.25819889 2928:0.25819889 2929:0.25819889 3051:0.25819889 3541:0.25819889 3611:0.25819889 3718:0.25819889 #
-1 476:0.44721359 1476:0.44721359 1877:0.44721359 3541:0.44721359 3582:0.44721359 #
-1 81:0.16666667 120:0.16666667 337:0.16666667 476:0.16666667 670:0.16666667 672:0.16666667 765:0.16666667 838:0.16666667 1240:0.16666667 1243:0.16666667 1316:0.16666667 1500:0.16666667 1501:0.16666667 1525:0.16666667 1990:0.33333334 2000:0.16666667 2934:0.16666667 2938:0.16666667 2946:0.16666667 3213:0.5 3223:0.16666667 3541:0.16666667 3608:0.16666667 3830:0.16666667 3839:0.16666667 #
1 36:0.29172999 38:0.29172999 208:0.14586499 232:0.14586499 241:0.14586499 265:0.14586499 278:0.14586499 312:0.14586499 313:0.14586499 320:0.14586499 325:0.14586499 436:0.14586499 518:0.14586499 614:0.14586499 797:0.29172999 798:0.14586499 799:0.14586499 1795:0.14586499 1796:0.14586499 1815:0.14586499 1816:0.14586499 2075:0.14586499 2077:0.14586499 2374:0.14586499 2375:0.14586499 2541:0.14586499 2542:0.14586499 2748:0.14586499 2750:0.14586499 3047:0.14586499 3151:0.14586499 3158:0.14586499 3291:0.14586499 3299:0.14586499 3364:0.14586499 3366:0.14586499 3755:0.14586499 3757:0.14586499 #
1 518:0.35355338 603:0.35355338 863:0.35355338 900:0.35355338 913:0.35355338 1329:0.35355338 1964:0.35355338 3213:0.35355338 #
0.96657025319760803139246263526729 422:0.33333334 518:0.33333334 574:0.33333334 1719:0.33333334 1759:0.33333334 1765:0.33333334 1953:0.33333334 1954:0.33333334 2116:0.33333334 #
1 152:0.24253562 175:0.24253562 389:0.24253562 518:0.24253562 556:0.24253562 923:0.24253562 1281:0.24253562 1386:0.24253562 1432:0.24253562 1435:0.24253562 1552:0.24253562 1553:0.24253562 1618:0.24253562 1815:0.24253562 2237:0.24253562 2508:0.24253562 2930:0.24253562 #
1 476:0.44721359 1759:0.44721359 1784:0.44721359 3103:0.44721359 3106:0.44721359 #
-1 36:0.28867513 38:0.28867513 206:0.14433756 232:0.14433756 241:0.14433756 265:0.14433756 278:0.14433756 312:0.14433756 313:0.14433756 320:0.14433756 325:0.14433756 436:0.14433756 518:0.14433756 614:0.14433756 797:0.28867513 798:0.14433756 799:0.14433756 1795:0.14433756 1796:0.14433756 1815:0.14433756 1816:0.14433756 2075:0.14433756 2077:0.14433756 2208:0.14433756 2374:0.14433756 2375:0.14433756 2541:0.14433756 2542:0.14433756 2748:0.14433756 2750:0.14433756 3047:0.14433756 3151:0.14433756 3158:0.14433756 3291:0.14433756 3299:0.14433756 3364:0.14433756 3366:0.14433756 3755:0.14433756 3757:0.14433756 #
-0.78604751680738516039781416111509 50:0.16012815 51:0.16012815 124:0.16012815 127:0.16012815 320:0.32025629 325:0.16012815 359:0.16012815 436:0.16012815 450:0.16012815 949:0.16012815 950:0.16012815 1749:0.16012815 1752:0.16012815 1985:0.16012815 2075:0.16012815 2079:0.16012815 2301:0.32025629 2303:0.16012815 2304:0.16012815 2352:0.16012815 2353:0.16012815 2410:0.16012815 2443:0.16012815 2963:0.16012815 2964:0.16012815 3364:0.16012815 3366:0.16012815 3693:0.16012815 3694:0.16012815 3939:0.16012815 3952:0.16012815 3955:0.16012815 3956:0.16012815 #
-1 50:0.14744195 51:0.14744195 124:0.14744195 126:0.14744195 320:0.29488391 325:0.14744195 359:0.14744195 436:0.14744195 450:0.14744195 946:0.14744195 947:0.14744195 949:0.14744195 950:0.14744195 1749:0.14744195 1752:0.14744195 1985:0.14744195 1988:0.14744195 2075:0.14744195 2079:0.14744195 2301:0.29488391 2303:0.14744195 2304:0.14744195 2352:0.14744195 2353:0.14744195 2410:0.14744195 2443:0.14744195 2963:0.14744195 2964:0.14744195 3364:0.14744195 3366:0.14744195 3523:0.29488391 3541:0.14744195 3617:0.14744195 3693:0.14744195 3694:0.14744195 3939:0.14744195 3952:0.14744195 #
0.82915515629047009671381829321035 7:0.46291006 11:0.15430336 365:0.15430336 476:0.15430336 900:0.15430336 1410:0.15430336 1478:0.15430336 1487:0.15430336 1609:0.15430336 1613:0.15430336 1759:0.30860671 1788:0.15430336 1795:0.15430336 1802:0.15430336 1937:0.15430336 1938:0.15430336 2312:0.15430336 2313:0.15430336 2314:0.15430336 2952:0.15430336 2984:0.15430336 2985:0.15430336 3203:0.15430336 3213:0.15430336 3218:0.15430336 3346:0.15430336 3364:0.15430336 3369:0.15430336 3541:0.15430336 3583:0.15430336 3885:0.15430336 #
0.55616456245928058699234952655388 7:0.28867513 346:0.28867513 348:0.28867513 476:0.28867513 1990:0.28867513 1991:0.28867513 1992:0.28867513 2028:0.28867513 2039:0.28867513 3188:0.28867513 3541:0.28867513 3611:0.28867513 #
1 476:0.5 892:0.5 896:0.5 3541:0.5 #
0.54428340639583638882470495445887 476:0.44721359 2028:0.44721359 2034:0.44721359 3541:0.44721359 3611:0.44721359 #
1 7:0.26726124 15:0.26726124 476:0.26726124 900:0.26726124 902:0.26726124 1476:0.26726124 2952:0.26726124 2967:0.26726124 3114:0.26726124 3541:0.26726124 3662:0.26726124 3686:0.26726124 3783:0.26726124 3894:0.26726124 #
0.81906981215263718887342747621005 7:0.17677669 105:0.17677669 106:0.17677669 265:0.17677669 269:0.17677669 376:0.17677669 379:0.17677669 476:0.17677669 492:0.17677669 686:0.17677669 690:0.17677669 1078:0.17677669 1079:0.17677669 1083:0.17677669 1084:0.17677669 1270:0.17677669 1271:0.17677669 1348:0.17677669 1349:0.17677669 1359:0.17677669 1361:0.17677669 1413:0.17677669 1618:0.17677669 1620:0.17677669 1650:0.17677669 1897:0.17677669 1898:0.17677669 2459:0.17677669 2461:0.17677669 3541:0.17677669 3690:0.17677669 3692:0.17677669 #
-1 7:0.44721359 476:0.44721359 478:0.44721359 3541:0.44721359 3544:0.44721359 #
-1 476:1 #
1 36:0.17407766 232:0.34815532 320:0.17407766 436:0.17407766 904:0.34815532 921:0.34815532 922:0.34815532 1163:0.17407766 1389:0.17407766 1393:0.17407766 1904:0.17407766 2468:0.17407766 2509:0.17407766 3024:0.17407766 3131:0.17407766 3132:0.17407766 3364:0.34815532 3366:0.17407766 #
1 7:0.16903085 320:0.16903085 325:0.16903085 436:0.16903085 440:0.16903085 1054:0.16903085 1055:0.16903085 1216:0.16903085 1217:0.16903085 1281:0.16903085 1379:0.16903085 1573:0.16903085 1576:0.16903085 1687:0.16903085 1704:0.16903085 1858:0.16903085 2301:0.16903085 2410:0.16903085 2875:0.33806169 2876:0.16903085 3364:0.33806169 3415:0.33806169 3507:0.16903085 3510:0.16903085 3541:0.16903085 3707:0.16903085 #
1 85:0.2773501 518:0.2773501 1990:0.2773501 2000:0.2773501 2046:0.2773501 2047:0.2773501 2626:0.2773501 3213:0.2773501 3266:0.2773501 3269:0.2773501 3364:0.2773501 3507:0.2773501 3515:0.2773501 #
-1 22:0.16903085 152:0.16903085 320:0.16903085 325:0.16903085 426:0.16903085 436:0.16903085 1565:0.16903085 1618:0.16903085 1687:0.33806169 1691:0.16903085 1716:0.16903085 1719:0.16903085 1815:0.16903085 1820:0.16903085 1858:0.16903085 1921:0.16903085 1929:0.16903085 1990:0.16903085 2001:0.16903085 2003:0.16903085 3062:0.16903085 3065:0.16903085 3088:0.16903085 3269:0.16903085 3271:0.16903085 3361:0.16903085 3362:0.16903085 3364:0.16903085 3366:0.16903085 3541:0.16903085 3587:0.16903085 3771:0.16903085 #
-1 289:0.18898223 432:0.18898223 670:0.18898223 906:0.18898223 1260:0.18898223 1483:0.18898223 1795:0.18898223 2237:0.56694669 2244:0.18898223 2522:0.18898223 2602:0.18898223 2706:0.18898223 2875:0.18898223 2879:0.18898223 3213:0.18898223 3364:0.18898223 3375:0.18898223 3415:0.18898223 3507:0.18898223 3515:0.18898223 #
-1 6:0.21821789 143:0.21821789 152:0.21821789 290:0.21821789 518:0.21821789 580:0.21821789 1281:0.21821789 1795:0.21821789 2057:0.21821789 2064:0.21821789 2286:0.21821789 2287:0.21821789 2581:0.21821789 3053:0.21821789 3070:0.21821789 3103:0.21821789 3364:0.21821789 3421:0.21821789 3517:0.21821789 3541:0.21821789 3559:0.21821789 #
1 476:0.57735026 3468:0.57735026 3470:0.57735026 #
1 232:0.21320072 466:0.21320072 476:0.42640144 1128:0.21320072 1219:0.21320072 1670:0.21320072 1719:0.21320072 1828:0.21320072 2130:0.21320072 2365:0.21320072 2366:0.21320072 2410:0.21320072 2880:0.21320072 3251:0.21320072 3468:0.21320072 3541:0.21320072 3665:0.21320072 3904:0.21320072 3945:0.21320072 #
1 137:0.44721359 139:0.44721359 476:0.44721359 511:0.44721359 1550:0.44721359 #
-1 476:0.57735026 3468:0.57735026 3470:0.57735026 #
-1 476:1 #
0.93622411151494744352419274946442 390:0.19245009 436:0.19245009 459:0.19245009 1022:0.19245009 1024:0.19245009 1550:0.19245009 1759:0.19245009 1793:0.19245009 2237:0.19245009 2410:0.38490018 2423:0.19245009 2508:0.19245009 2512:0.19245009 3068:0.19245009 3190:0.19245009 3200:0.19245009 3325:0.19245009 3541:0.38490018 3640:0.19245009 3647:0.19245009 3814:0.19245009 #
0.62473526483350694249452317308169 7:0.15617377 90:0.15617377 303:0.15617377 320:0.31234753 325:0.15617377 436:0.15617377 670:0.15617377 678:0.15617377 1371:0.15617377 1396:0.15617377 1397:0.15617377 1500:0.15617377 1542:0.15617377 1815:0.31234753 1985:0.15617377 2075:0.15617377 2237:0.31234753 2250:0.15617377 3213:0.15617377 3214:0.15617377 3316:0.15617377 3323:0.15617377 3364:0.15617377 3366:0.15617377 3461:0.15617377 3541:0.15617377 3560:0.15617377 3802:0.15617377 3888:0.15617377 3889:0.15617377 3891:0.15617377 3892:0.15617377 #
1 468:0.073720977 892:0.073720977 894:0.073720977 2064:0.7372098 2065:0.66348881 #
0.98651259557095338781351756551885 36:0.18569534 39:0.18569534 152:0.18569534 297:0.18569534 303:0.18569534 346:0.18569534 347:0.18569534 418:0.18569534 436:0.18569534 457:0.18569534 670:0.18569534 676:0.18569534 1054:0.18569534 1055:0.18569534 1565:0.18569534 1670:0.18569534 1676:0.18569534 1687:0.18569534 1711:0.18569534 1795:0.18569534 2148:0.18569534 2475:0.18569534 2763:0.18569534 3032:0.18569534 3068:0.18569534 3364:0.18569534 3517:0.18569534 3541:0.18569534 3587:0.18569534 #
0.42598986498862484451066734436608 152:0.34815532 186:0.17407766 436:0.17407766 452:0.17407766 1568:0.17407766 1569:0.17407766 2055:0.17407766 2208:0.17407766 2237:0.34815532 2263:0.34815532 2464:0.17407766 2488:0.17407766 3082:0.34815532 3337:0.17407766 3403:0.17407766 3541:0.17407766 3550:0.17407766 3735:0.17407766 3737:0.17407766 3939:0.17407766 3966:0.17407766 #
-1 7:0.41702881 97:0.20851441 98:0.20851441 152:0.20851441 208:0.20851441 242:0.20851441 518:0.20851441 686:0.20851441 689:0.20851441 2810:0.41702881 2850:0.20851441 3541:0.20851441 3783:0.20851441 3798:0.20851441 3873:0.20851441 3904:0.20851441 3915:0.20851441 #
-1 7:0.48666427 15:0.16222142 265:0.16222142 279:0.16222142 476:0.16222142 850:0.16222142 851:0.16222142 1376:0.16222142 1450:0.16222142 1573:0.16222142 1574:0.16222142 1686:0.16222142 1759:0.16222142 2312:0.16222142 2507:0.16222142 2609:0.16222142 2809:0.16222142 2875:0.16222142 2876:0.16222142 3031:0.16222142 3213:0.16222142 3223:0.16222142 3541:0.16222142 3566:0.16222142 3783:0.16222142 3792:0.16222142 3821:0.16222142 3904:0.16222142 3905:0.16222142 3927:0.16222142 #
-1 7:0.5547002 518:0.2773501 522:0.2773501 527:0.2773501 1163:0.2773501 2028:0.2773501 3541:0.2773501 3662:0.2773501 3683:0.2773501 3894:0.2773501 #
-1 7:0.38490018 252:0.38490018 376:0.19245009 412:0.19245009 476:0.19245009 485:0.19245009 1216:0.19245009 1432:0.38490018 1434:0.19245009 1775:0.19245009 2410:0.19245009 3326:0.19245009 3541:0.38490018 3595:0.19245009 3647:0.19245009 #
-1 7:0.18257418 48:0.18257418 211:0.18257418 213:0.18257418 346:0.18257418 376:0.18257418 436:0.18257418 670:0.18257418 678:0.18257418 1352:0.18257418 1670:0.18257418 1674:0.18257418 1719:0.18257418 1815:0.18257418 1858:0.36514837 1866:0.18257418 2028:0.18257418 2029:0.18257418 2116:0.18257418 2139:0.18257418 2488:0.18257418 2686:0.18257418 2875:0.18257418 3025:0.18257418 3269:0.18257418 3403:0.18257418 3541:0.18257418 #
1 476:0.40824831 2286:0.40824831 2287:0.40824831 2367:0.40824831 3364:0.40824831 3541:0.40824831 #
1 320:0.2773501 326:0.2773501 476:0.2773501 2237:0.2773501 2261:0.2773501 2508:0.2773501 2984:0.2773501 3027:0.2773501 3364:0.2773501 3366:0.2773501 3541:0.2773501 3646:0.2773501 3749:0.2773501 #
1 476:0.37796447 993:0.37796447 1759:0.37796447 3468:0.37796447 3470:0.37796447 3541:0.37796447 3594:0.37796447 #
1 265:0.20851441 376:0.20851441 381:0.20851441 476:0.20851441 492:0.20851441 802:0.20851441 812:0.20851441 1221:0.41702881 1222:0.20851441 1225:0.20851441 1316:0.20851441 1319:0.20851441 1387:0.20851441 1388:0.20851441 1618:0.20851441 1891:0.20851441 2494:0.20851441 2495:0.20851441 3364:0.20851441 3367:0.20851441 #
-1 11:0.25819889 476:0.25819889 486:0.25819889 1383:0.25819889 1415:0.25819889 2028:0.25819889 2030:0.25819889 3364:0.51639777 3369:0.25819889 3389:0.25819889 3730:0.25819889 3733:0.25819889 #
-1 476:0.37796447 639:0.37796447 1025:0.37796447 1759:0.37796447 1764:0.37796447 2237:0.37796447 2981:0.37796447 #
-1 152:0.28867513 163:0.28867513 320:0.28867513 328:0.28867513 476:0.28867513 1466:0.28867513 1467:0.28867513 3068:0.28867513 3364:0.28867513 3366:0.28867513 3541:0.28867513 3735:0.28867513 #
-1 476:0.33333334 1687:0.33333334 2237:0.33333334 2508:0.33333334 2974:0.33333334 3126:0.33333334 3364:0.33333334 3417:0.33333334 3441:0.33333334 #
-1 15:0.25 320:0.25 476:0.25 480:0.25 1759:0.25 1789:0.25 1990:0.25 1999:0.25 2347:0.25 2348:0.25 2390:0.25 3190:0.25 3269:0.25 3364:0.25 3366:0.25 3541:0.25 #
0.21743966082590149291320358315716 15:0.45749572 320:0.15249857 328:0.15249857 330:0.15249857 436:0.15249857 1500:0.15249857 1503:0.15249857 1582:0.15249857 1670:0.15249857 1675:0.15249857 1795:0.15249857 2444:0.15249857 2488:0.15249857 2547:0.15249857 2928:0.15249857 2933:0.15249857 3024:0.15249857 3291:0.15249857 3295:0.15249857 3305:0.15249857 3364:0.15249857 3366:0.15249857 3541:0.15249857 3589:0.15249857 3735:0.15249857 3771:0.15249857 3778:0.15249857 3874:0.30499715 3876:0.30499715 #
1 7:0.63960212 152:0.21320072 185:0.21320072 636:0.21320072 1064:0.21320072 1065:0.21320072 1476:0.21320072 1477:0.21320072 3213:0.21320072 3214:0.21320072 3541:0.21320072 3582:0.21320072 3904:0.21320072 3969:0.21320072 #
1 7:0.2236068 15:0.2236068 152:0.2236068 365:0.2236068 518:0.2236068 523:0.2236068 610:0.2236068 1921:0.2236068 2410:0.2236068 2541:0.2236068 3213:0.2236068 3218:0.2236068 3375:0.2236068 3376:0.2236068 3541:0.2236068 3780:0.2236068 3781:0.2236068 3830:0.2236068 3904:0.2236068 3934:0.2236068 #
1 7:0.57735026 476:0.28867513 642:0.28867513 1687:0.28867513 1689:0.28867513 1835:0.28867513 3025:0.28867513 3874:0.28867513 3875:0.28867513 #
-1 7:0.66666669 468:0.33333334 470:0.33333334 1778:0.33333334 1915:0.33333334 3541:0.33333334 #
-0.86192350929804939507761218919768 7:0.25819889 518:0.25819889 892:0.25819889 897:0.25819889 1457:0.25819889 2052:0.51639777 2718:0.25819889 3027:0.25819889 3150:0.25819889 3541:0.25819889 3874:0.25819889 3875:0.25819889 #
-1 7:0.62554324 96:0.20851441 476:0.20851441 485:0.20851441 904:0.20851441 1236:0.20851441 1892:0.20851441 1893:0.20851441 1934:0.20851441 2784:0.20851441 3541:0.41702881 3647:0.20851441 #
-1 7:0.72760689 10:0.48507124 476:0.24253562 485:0.24253562 3533:0.24253562 3541:0.24253562 #
-1 7:0.61237246 120:0.20412415 476:0.20412415 647:0.20412415 1921:0.20412415 1922:0.20412415 2561:0.20412415 2576:0.20412415 3213:0.20412415 3223:0.20412415 3291:0.20412415 3303:0.20412415 3308:0.20412415 3313:0.20412415 3324:0.20412415 3802:0.20412415 #
1 476:0.57735026 2028:0.57735026 2237:0.57735026 #
1 66:0.18257418 337:0.18257418 518:0.18257418 670:0.18257418 1163:0.18257418 1219:0.18257418 1383:0.18257418 1759:0.18257418 1774:0.18257418 1815:0.36514837 1818:0.18257418 1858:0.36514837 1990:0.18257418 2814:0.18257418 2955:0.18257418 3203:0.18257418 3205:0.18257418 3273:0.18257418 3305:0.18257418 3306:0.18257418 3316:0.18257418 3319:0.18257418 3403:0.18257418 3478:0.18257418 #
0.3542562816371762624001462427259 476:0.21320072 670:0.42640144 930:0.21320072 1795:0.21320072 1826:0.21320072 2006:0.21320072 2116:0.21320072 2133:0.21320072 2410:0.21320072 2432:0.21320072 2647:0.21320072 3070:0.21320072 3251:0.21320072 3330:0.21320072 3331:0.21320072 3364:0.21320072 3407:0.21320072 3735:0.21320072 3830:0.21320072 #
1 476:0.2 633:0.2 850:0.2 1398:0.2 1812:0.2 1814:0.2 1815:0.2 1858:0.2 1874:0.2 2042:0.2 2087:0.2 2093:0.2 2500:0.2 2561:0.2 2573:0.2 3245:0.2 3308:0.2 3364:0.40000001 3369:0.2 3399:0.2 3783:0.2 3790:0.2 #
1 476:0.40824831 704:0.40824831 708:0.40824831 1858:0.40824831 2116:0.40824831 2133:0.40824831 #
-1 232:0.28867513 252:0.28867513 253:0.28867513 265:0.28867513 279:0.28867513 290:0.28867513 476:0.28867513 2028:0.28867513 2561:0.28867513 2563:0.28867513 3203:0.28867513 3213:0.28867513 #
-1 15:0.30151135 265:0.30151135 266:0.30151135 337:0.30151135 476:0.30151135 492:0.30151135 2237:0.30151135 2242:0.30151135 2291:0.30151135 3213:0.30151135 3799:0.30151135 #
-1 232:0.21320072 328:0.21320072 329:0.21320072 518:0.21320072 570:0.21320072 670:0.21320072 675:0.21320072 1398:0.21320072 1550:0.21320072 1578:0.21320072 1618:0.21320072 1670:0.21320072 1759:0.21320072 1815:0.21320072 1903:0.21320072 2410:0.21320072 2424:0.21320072 3280:0.21320072 3364:0.21320072 3370:0.21320072 3686:0.21320072 3687:0.21320072 #
-1 152:0.25 436:0.25 1214:0.25 1240:0.25 1243:0.25 1314:0.25 1511:0.25 1514:0.25 1618:0.25 1990:0.25 2054:0.25 2148:0.25 2410:0.25 3213:0.25 3316:0.25 3830:0.25 #
-1 15:0.2 322:0.2 476:0.2 493:0.2 1281:0.2 1828:0.2 1830:0.2 1903:0.2 1921:0.2 1929:0.2 2028:0.2 2072:0.2 2073:0.2 2206:0.2 2301:0.2 2308:0.2 2880:0.2 2881:0.2 3239:0.2 3507:0.2 3510:0.2 3771:0.2 3773:0.2 3904:0.2 3934:0.2 #
1 7:0.2236068 15:0.2236068 476:0.2236068 721:0.2236068 1383:0.2236068 1390:0.2236068 1795:0.2236068 1888:0.2236068 1889:0.2236068 3213:0.2236068 3223:0.2236068 3291:0.2236068 3308:0.2236068 3313:0.2236068 3325:0.2236068 3364:0.2236068 3389:0.2236068 3541:0.2236068 3753:0.2236068 3754:0.2236068 #
1 7:0.57735026 476:0.28867513 478:0.28867513 485:0.28867513 1659:0.28867513 3190:0.28867513 3199:0.28867513 3541:0.28867513 3640:0.28867513 #
1 4:0.26726124 7:0.53452247 8:0.26726124 132:0.26726124 476:0.26726124 485:0.26726124 1959:0.26726124 1960:0.26726124 2116:0.26726124 2124:0.26726124 3541:0.26726124 #
-0.97636975882601517717773731419584 6:0.21320072 120:0.21320072 128:0.21320072 468:0.21320072 469:0.21320072 719:0.21320072 720:0.21320072 892:0.21320072 894:0.21320072 2941:0.21320072 3055:0.21320072 3070:0.21320072 3075:0.21320072 3111:0.21320072 3213:0.21320072 3364:0.21320072 3421:0.21320072 3541:0.42640144 3647:0.21320072 #
-1 7:0.28867513 211:0.28867513 476:0.28867513 624:0.28867513 2116:0.28867513 2119:0.28867513 2359:0.28867513 3273:0.28867513 3541:0.28867513 3855:0.28867513 3856:0.28867513 3873:0.28867513 #
-1 7:0.43643579 320:0.21821789 326:0.21821789 412:0.21821789 476:0.21821789 485:0.21821789 1258:0.21821789 1396:0.21821789 1397:0.21821789 1759:0.21821789 2028:0.21821789 2029:0.21821789 2237:0.21821789 2261:0.21821789 3027:0.21821789 3316:0.21821789 3830:0.21821789 3836:0.21821789 #
-1 11:0.5 476:0.25 624:0.25 1281:0.25 1759:0.25 1774:0.25 1858:0.25 1865:0.25 1964:0.25 2116:0.25 3316:0.25 3319:0.25 3541:0.25 #
-1 7:0.40824831 135:0.40824831 476:0.40824831 485:0.40824831 2283:0.40824831 2464:0.40824831 #
1 252:0.55708599 254:0.18569534 436:0.18569534 466:0.18569534 770:0.18569534 1031:0.18569534 1281:0.18569534 1291:0.18569534 1511:0.18569534 1670:0.18569534 1677:0.18569534 2237:0.37139067 3334:0.18569534 3432:0.18569534 3541:0.18569534 3735:0.18569534 3737:0.18569534 3904:0.18569534 #
1 518:0.25 1056:0.25 1903:0.5 2010:0.25 2406:0.25 2535:0.25 2791:0.25 2955:0.25 2980:0.25 3213:0.5 #
1 518:0.2236068 857:0.2236068 883:0.2236068 1525:0.2236068 1538:0.2236068 1543:0.2236068 1990:0.2236068 2028:0.2236068 2202:0.2236068 2464:0.2236068 2581:0.2236068 2605:0.2236068 2781:0.2236068 3213:0.44721359 3273:0.2236068 3274:0.2236068 3763:0.2236068 #
-1 4:0.2 252:0.2 263:0.2 883:0.2 1500:0.2 1759:0.2 1815:0.2 2377:0.40000001 2390:0.2 2599:0.2 2965:0.2 3213:0.60000002 3541:0.2 3667:0.2 #
-0.80458549860758210581224147972534 15:0.13018891 343:0.13018891 344:0.13018891 518:0.13018891 603:0.13018891 1122:0.13018891 1124:0.13018891 1595:0.13018891 1596:0.13018891 1609:0.13018891 1719:0.13018891 1745:0.13018891 1759:0.13018891 1788:0.13018891 2210:0.13018891 2278:0.13018891 2410:0.26037782 2436:0.13018891 2439:0.13018891 2644:0.13018891 2751:0.13018891 3190:0.13018891 3195:0.13018891 3213:0.65094453 3217:0.13018891 3231:0.13018891 3249:0.13018891 3289:0.13018891 3324:0.13018891 3541:0.13018891 3590:0.13018891 3852:0.13018891 #
-1 15:0.18898223 36:0.18898223 152:0.37796447 518:0.18898223 529:0.18898223 716:0.18898223 784:0.18898223 1471:0.18898223 1473:0.18898223 1576:0.18898223 1815:0.18898223 1818:0.18898223 2459:0.37796447 2483:0.18898223 2484:0.18898223 3070:0.18898223 3096:0.18898223 3347:0.18898223 3364:0.18898223 3421:0.18898223 3468:0.18898223 3541:0.18898223 #
-1 152:0.2773501 387:0.2773501 422:0.2773501 518:0.2773501 1550:0.2773501 1990:0.2773501 1995:0.2773501 2064:0.2773501 3239:0.2773501 3300:0.2773501 3541:0.2773501 3550:0.2773501 3783:0.2773501 #
1 7:0.30151135 320:0.30151135 413:0.30151135 476:0.30151135 1002:0.30151135 2870:0.30151135 3239:0.30151135 3300:0.30151135 3316:0.30151135 3821:0.30151135 3823:0.30151135 #
1 11:0.5 476:0.5 486:0.5 3541:0.5 #
1 11:0.37796447 476:0.37796447 486:0.37796447 1618:0.37796447 2064:0.37796447 3541:0.37796447 3557:0.37796447 #
1 7:0.25819889 81:0.25819889 476:0.25819889 852:0.25819889 1558:0.25819889 1559:0.25819889 1618:0.25819889 1650:0.25819889 1719:0.25819889 2488:0.25819889 2845:0.25819889 3300:0.25819889 3541:0.25819889 3690:0.25819889 3692:0.25819889 #
1 7:0.19245009 11:0.19245009 120:0.19245009 193:0.19245009 232:0.19245009 248:0.19245009 405:0.19245009 476:0.19245009 485:0.19245009 1281:0.19245009 1795:0.19245009 1812:0.19245009 1814:0.19245009 2091:0.19245009 2464:0.19245009 2561:0.19245009 2565:0.19245009 2581:0.19245009 2585:0.19245009 2799:0.19245009 3364:0.19245009 3755:0.19245009 3757:0.19245009 3771:0.19245009 3772:0.19245009 3783:0.19245009 3790:0.19245009 #
-1 476:1 #
-1 476:0.26726124 904:0.26726124 921:0.26726124 1074:0.26726124 1221:0.26726124 1525:0.26726124 1564:0.26726124 2476:0.26726124 3118:0.26726124 3326:0.26726124 3327:0.26726124 3735:0.26726124 3738:0.26726124 3869:0.26726124 #
1 15:0.18898223 46:0.18898223 120:0.18898223 128:0.18898223 152:0.37796447 161:0.18898223 346:0.18898223 518:0.18898223 704:0.18898223 1352:0.18898223 1504:0.18898223 1505:0.18898223 1759:0.18898223 1990:0.18898223 2647:0.18898223 2831:0.18898223 2917:0.18898223 2978:0.18898223 3018:0.18898223 3213:0.18898223 3541:0.18898223 3608:0.18898223 3810:0.18898223 3830:0.18898223 3864:0.18898223 #
1 36:0.2773501 37:0.2773501 149:0.2773501 152:0.2773501 518:0.2773501 906:0.2773501 907:0.2773501 1191:0.2773501 1550:0.2773501 1759:0.2773501 1761:0.2773501 1990:0.2773501 3280:0.2773501 #
1 7:0.18257418 15:0.18257418 152:0.18257418 337:0.18257418 420:0.18257418 476:0.18257418 485:0.18257418 925:0.18257418 926:0.18257418 1471:0.18257418 1474:0.18257418 1858:0.18257418 1859:0.18257418 1990:0.18257418 2237:0.18257418 2459:0.36514837 2481:0.18257418 2551:0.18257418 2606:0.18257418 2970:0.18257418 3213:0.18257418 3251:0.18257418 3541:0.18257418 3581:0.18257418 3751:0.18257418 3780:0.18257418 3939:0.18257418 #
1 7:0.21320072 36:0.21320072 152:0.21320072 232:0.21320072 303:0.21320072 390:0.21320072 518:0.21320072 670:0.21320072 918:0.21320072 1111:0.21320072 1185:0.21320072 1398:0.21320072 1749:0.21320072 1752:0.21320072 1759:0.21320072 1990:0.21320072 2842:0.21320072 2963:0.21320072 3088:0.21320072 3269:0.21320072 3272:0.21320072 3541:0.21320072 #
1 152:0.40824831 163:0.20412415 518:0.20412415 531:0.20412415 1390:0.20412415 1391:0.20412415 1466:0.20412415 1815:0.20412415 2222:0.20412415 2459:0.20412415 2617:0.20412415 3269:0.20412415 3275:0.20412415 3403:0.40824831 3406:0.20412415 3541:0.20412415 3643:0.20412415 3735:0.20412415 #
-1 436:0.31622776 670:0.31622776 1365:0.31622776 1366:0.31622776 2114:0.31622776 2184:0.31622776 2814:0.31622776 3325:0.31622776 3541:0.31622776 3894:0.31622776 #
-1 152:0.20851441 296:0.20851441 405:0.20851441 406:0.20851441 436:0.20851441 458:0.20851441 744:0.20851441 1961:0.20851441 2057:0.20851441 2488:0.20851441 2509:0.20851441 2778:0.20851441 3316:0.20851441 3322:0.20851441 3375:0.20851441 3753:0.20851441 3764:0.20851441 3904:0.41702881 3955:0.20851441 3968:0.20851441 #
-1 518:0.2773501 739:0.2773501 1122:0.2773501 1123:0.2773501 1990:0.2773501 2208:0.2773501 2284:0.2773501 2561:0.2773501 3364:0.2773501 3383:0.2773501 3541:0.2773501 3652:0.2773501 3755:0.2773501 #
-1 152:0.17407766 154:0.17407766 232:0.17407766 436:0.17407766 447:0.17407766 727:0.17407766 1281:0.17407766 1299:0.17407766 1670:0.17407766 1677:0.17407766 2312:0.17407766 2511:0.17407766 3051:0.17407766 3123:0.17407766 3364:0.17407766 3403:0.17407766 3436:0.17407766 3764:0.17407766 3802:0.17407766 3813:0.17407766 3855:0.17407766 3904:0.52223295 3914:0.17407766 3964:0.17407766 3968:0.17407766 #
-1 4:0.17960531 7:0.17960531 8:0.17960531 134:0.17960531 211:0.17960531 436:0.17960531 476:0.17960531 659:0.17960531 1052:0.17960531 1313:0.17960531 1352:0.17960531 1353:0.17960531 1511:0.17960531 1669:0.17960531 1858:0.17960531 2105:0.17960531 2390:0.17960531 2984:0.35921061 3016:0.17960531 3203:0.17960531 3205:0.17960531 3507:0.17960531 3508:0.17960531 3541:0.17960531 3814:0.17960531 3904:0.17960531 3935:0.17960531 3936:0.17960531 #
0.10046340702230929786686886018288 4:0.24253562 1035:0.24253562 1037:0.24253562 1206:0.24253562 1795:0.24253562 1808:0.24253562 2116:0.24253562 2156:0.24253562 2459:0.48507124 2469:0.24253562 2483:0.24253562 3468:0.24253562 3469:0.24253562 3541:0.24253562 #
1 382:0.35355338 383:0.35355338 476:0.35355338 3213:0.35355338 3220:0.35355338 3735:0.35355338 3747:0.35355338 3788:0.35355338 #
1 15:0.70710677 476:0.35355338 487:0.35355338 3513:0.35355338 3541:0.35355338 #
1 15:0.37796447 412:0.37796447 476:0.37796447 644:0.37796447 988:0.37796447 3190:0.37796447 3541:0.37796447 #
0.48848832615009707414088779842132 15:0.20851441 152:0.20851441 476:0.41702881 618:0.20851441 641:0.20851441 873:0.20851441 1487:0.20851441 1759:0.20851441 1795:0.20851441 1823:0.20851441 2380:0.20851441 2840:0.20851441 2841:0.20851441 2928:0.20851441 3020:0.20851441 3190:0.20851441 3213:0.20851441 3364:0.20851441 3369:0.20851441 3541:0.20851441 #
-0.57248438667696754933444935886655 15:0.45883146 150:0.22941573 220:0.22941573 476:0.45883146 497:0.22941573 502:0.22941573 983:0.22941573 1335:0.22941573 1476:0.22941573 2329:0.22941573 3468:0.22941573 3541:0.22941573 3582:0.22941573 #
-1 7:0.2 152:0.2 346:0.2 352:0.2 476:0.2 644:0.2 1759:0.2 1815:0.2 1820:0.2 1990:0.2 1992:0.2 2091:0.2 2518:0.2 2521:0.2 3190:0.40000001 3200:0.2 3213:0.2 3223:0.2 3541:0.2 3640:0.2 3939:0.2 3953:0.2 #
-1 15:0.33333334 141:0.33333334 476:0.33333334 487:0.33333334 1398:0.33333334 1402:0.33333334 3364:0.33333334 3369:0.33333334 3403:0.33333334 #
-0.23907303831710646768726746813627 518:0.21821789 568:0.21821789 1182:0.21821789 1511:0.21821789 1719:0.21821789 1745:0.21821789 1759:0.21821789 1788:0.21821789 1858:0.21821789 2210:0.21821789 2643:0.21821789 2781:0.21821789 3213:0.43643579 3249:0.21821789 3289:0.21821789 3303:0.21821789 3846:0.21821789 3852:0.21821789 #
-0.10837971406699559162589707739244 476:0.25 651:0.25 951:0.25 1471:0.25 1683:0.25 1880:0.25 2022:0.25 2056:0.25 2316:0.25 2318:0.25 3121:0.25 3541:0.5 3581:0.25 #
0.64849592282153145639256308641052 422:0.2 436:0.2 1324:0.2 1359:0.2 1362:0.2 1365:0.2 1366:0.2 1558:0.2 2116:0.40000001 2138:0.2 2147:0.2 2208:0.2 2237:0.2 2241:0.2 2377:0.2 2378:0.2 2417:0.2 2603:0.2 3251:0.2 3783:0.2 3789:0.2 3901:0.2 #
1 7:0.17677669 143:0.17677669 149:0.17677669 151:0.17677669 211:0.17677669 213:0.17677669 232:0.17677669 233:0.17677669 346:0.17677669 347:0.17677669 436:0.17677669 440:0.17677669 1275:0.17677669 1738:0.17677669 2057:0.17677669 2058:0.17677669 2062:0.17677669 2222:0.17677669 2611:0.17677669 2984:0.17677669 3026:0.17677669 3308:0.17677669 3315:0.17677669 3364:0.17677669 3365:0.17677669 3541:0.17677669 3644:0.17677669 3904:0.35355338 3914:0.17677669 #
0.36084038045593913590636248045485 436:0.37796447 1352:0.37796447 1353:0.37796447 1396:0.37796447 3541:0.37796447 3874:0.37796447 3904:0.37796447 #
0.27179194899100678206593784125289 436:0.35355338 446:0.35355338 686:0.35355338 694:0.35355338 1365:0.35355338 1366:0.35355338 2192:0.35355338 3541:0.35355338 #
-1 36:0.2 152:0.2 232:0.2 246:0.2 767:0.2 1022:0.2 1023:0.2 1275:0.2 1277:0.2 1795:0.40000001 1796:0.2 1809:0.2 2064:0.2 2116:0.2 2370:0.2 2508:0.2 3541:0.40000001 3569:0.2 3904:0.2 #
-1 120:0.25819889 128:0.25819889 365:0.25819889 389:0.25819889 476:0.25819889 1491:0.25819889 1493:0.25819889 1942:0.25819889 3213:0.25819889 3218:0.25819889 3541:0.25819889 3828:0.25819889 3882:0.25819889 3904:0.25819889 3911:0.25819889 #
-1 376:0.2236068 385:0.2236068 476:0.2236068 711:0.2236068 1198:0.2236068 1199:0.2236068 1618:0.2236068 1650:0.2236068 1983:0.2236068 1984:0.2236068 2799:0.2236068 2801:0.2236068 3239:0.2236068 3240:0.2236068 3541:0.44721359 3690:0.2236068 3692:0.2236068 #
-1 1:0.30151135 476:0.30151135 482:0.30151135 988:0.30151135 2028:0.30151135 2034:0.30151135 2842:0.30151135 3478:0.30151135 3541:0.30151135 3651:0.30151135 3748:0.30151135 #
-0.33111035976949509951339223334799 518:0.2773501 1462:0.2773501 1463:0.2773501 1838:0.2773501 2116:0.2773501 3150:0.2773501 3458:0.5547002 3541:0.2773501 3614:0.2773501 3874:0.2773501 #
1 15:0.21821789 476:0.43643579 635:0.21821789 1017:0.21821789 1066:0.21821789 1486:0.21821789 1490:0.21821789 1815:0.21821789 1817:0.21821789 1921:0.21821789 2273:0.21821789 2752:0.21821789 2758:0.21821789 3364:0.21821789 3395:0.21821789 3541:0.21821789 3894:0.21821789 3904:0.21821789 #
1 15:0.33333334 137:0.33333334 476:0.33333334 624:0.33333334 2116:0.33333334 2121:0.33333334 2561:0.33333334 2562:0.33333334 3814:0.33333334 #
1 15:0.20851441 265:0.20851441 518:0.20851441 529:0.20851441 670:0.20851441 680:0.20851441 1178:0.20851441 1330:0.20851441 1371:0.20851441 1669:0.20851441 1759:0.20851441 1787:0.20851441 1950:0.20851441 1951:0.20851441 2171:0.20851441 2928:0.20851441 2933:0.20851441 3190:0.20851441 3195:0.20851441 3213:0.20851441 3364:0.20851441 3402:0.20851441 3735:0.20851441 #
0.18268079071139844971050081312569 15:0.28867513 320:0.28867513 326:0.28867513 476:0.28867513 1416:0.28867513 1417:0.28867513 2028:0.28867513 2032:0.28867513 2607:0.28867513 3541:0.28867513 3657:0.28867513 3814:0.28867513 #
-1 7:0.30151135 85:0.30151135 476:0.30151135 648:0.30151135 805:0.30151135 892:0.30151135 896:0.30151135 2459:0.30151135 3190:0.30151135 3364:0.30151135 3730:0.30151135 #
-1 15:0.23570226 476:0.23570226 634:0.23570226 1017:0.23570226 1066:0.23570226 1618:0.23570226 1622:0.23570226 2237:0.23570226 2256:0.23570226 2561:0.23570226 2755:0.23570226 2757:0.23570226 2789:0.23570226 2790:0.23570226 3364:0.23570226 3380:0.23570226 3904:0.23570226 3918:0.23570226 #
-1 320:0.26726124 326:0.26726124 476:0.26726124 670:0.26726124 857:0.26726124 1053:0.26726124 2125:0.26726124 2222:0.26726124 2842:0.26726124 2984:0.26726124 3026:0.26726124 3096:0.26726124 3273:0.26726124 3364:0.26726124 #
-1 15:0.2236068 337:0.2236068 338:0.2236068 436:0.2236068 441:0.2236068 1178:0.2236068 1179:0.2236068 1511:0.2236068 1520:0.2236068 1618:0.2236068 1622:0.2236068 2237:0.2236068 2256:0.2236068 2755:0.2236068 2757:0.2236068 2789:0.2236068 2790:0.2236068 3364:0.2236068 3904:0.2236068 3922:0.2236068 #
1 36:0.33333334 37:0.33333334 78:0.33333334 518:0.33333334 2284:0.33333334 3541:0.33333334 3616:0.33333334 3939:0.33333334 3940:0.33333334 #
1 6:0.2773501 405:0.2773501 406:0.2773501 1476:0.2773501 1609:0.2773501 1615:0.2773501 2369:0.2773501 3316:0.2773501 3322:0.2773501 3364:0.2773501 3541:0.2773501 3590:0.2773501 3753:0.2773501 #
1 1035:0.37796447 1476:0.37796447 1609:0.37796447 1937:0.37796447 2984:0.37796447 3541:0.37796447 3582:0.37796447 #
